{"frameRate":30,"armature":[{"ik":[],"type":"Armature","name":"Hades","slot":[{"color":{},"name":"Layer 1","parent":"Shadow"},{"z":1,"color":{},"name":"Eff1","parent":"Effect","displayIndex":-1},{"z":2,"color":{},"name":"Left Wing","parent":"Left Wing"},{"z":3,"color":{},"name":"Right Wing","parent":"Right Wing"},{"z":4,"color":{},"name":"left arm","parent":"Left Arm"},{"z":5,"color":{},"name":"Skirt Copy","parent":"bottom"},{"z":6,"color":{},"name":"backcoat thing Copy","parent":"Top"},{"z":7,"color":{},"name":"body","parent":"Top"},{"z":8,"color":{},"name":"Right ARm","parent":"Right Arm"},{"z":9,"color":{},"name":"Head","parent":"head"}],"defaultActions":[{"gotoAndPlay":"Attack"}],"skin":[{"name":"","slot":[{"display":[{"path":"backcoat thing Copy","type":"image","name":"backcoat thing Copy","transform":{"y":-5.98,"skX":97.16,"skY":97.16,"x":56.16}}],"name":"backcoat thing Copy"},{"display":[{"path":"Layer 1","type":"image","name":"Layer 1","transform":{"y":-0.13,"x":6.17}}],"name":"Layer 1"},{"display":[{"bonePose":[6,-0.7131281065471795,0.701033739311051,-0.701033739311051,-0.7131281065471795,-17.79768797968637,-203.88354973544895,8,0.05686703891776945,0.9983817605929732,-0.9983817605929732,0.05686703891776945,22.798297296455985,-209.8326739953072,10,0.5966451474642323,0.8025051825423838,-0.8025051825423838,0.5966451474642323,46.06302485347902,-216.75832571175184,7,-0.24902797131175589,0.9684962929739852,-0.9684962929739852,-0.24902797131175589,-9.877682896034536,-196.46015297419947,13,0.5078390973492093,0.8614519436413968,-0.8614519436413968,0.5078390973492093,36.65318913600484,-204.88053585967305,12,0.9063815340338828,0.4224600747554558,-0.4224600747554558,0.9063815340338828,55.47040605338849,-200.92123699697888],"vertices":[-29.98,-267.31,-29.98,-253.67,-36.8,-234.83,-43.63,-201.25,-63.01,-176.13,-93.85,-149.92,-120.34,-127.26,-128.1,-109.24,-128.1,-95.31,-111.33,-108.97,-112.14,-96.41,-105.86,-99.95,-103.14,-80.58,-99.04,-66.65,-89.49,-79.48,-82.66,-88.49,-80.75,-81.12,-77.2,-84.13,-64.1,-62.83,-47.72,-40.18,-36.8,-38.12,-32.16,-47.83,-23.15,-59.3,-11.41,-65.57,-1.58,-70.76,-2.12,-75.13,4.71,-67.21,18.36,-49.47,30.1,-40.46,36.66,-38.12,46.21,-51.11,50.3,-63.94,62.59,-51.11,74.6,-43.47,90.44,-38.13,90.71,-48.11,87.98,-57.39,98.08,-42.1,103.82,-38.56,102.72,-48.92,96.44,-65.85,112.28,-50.84,128.1,-43.47,133.57,-61.49,147.22,-51.11,146.66,-61.76,160.31,-56.3,160.59,-65.58,170.69,-54.66,177.79,-65.31,182.16,-81.96,183.24,-97.24,182.97,-105.44,193.62,-89.33,196.9,-102.16,193.07,-116.9,187.61,-126.46,201.26,-117.72,202.9,-112.53,202.9,-130.28,195.26,-148.02,166.31,-167.13,135.47,-179.15,101.88,-197.44,71.31,-217.91,55.2,-234.29,48.37,-248.49,37.18,-265.95,24.08,-274.42,10.97,-276.12,-11.69,-276.12,-46.63,-166.3,-35.44,-182.96,-31.07,-195.79,-86.75,-135.72,-3.76,-97.79,-3.76,-123.45,-1.86,-153.75,2.78,-178.32,50.57,-87.42,42.93,-113.9,31.73,-154.57,23.81,-186.79,19.99,-205.36,1.96,-211.9,-20.15,-231.01,0.05,-239.2,12.88,-239.75,32.54,-237.84,53.3,-154.85,68.59,-110.9,77.87,-76.23,124.01,-81.69,108.44,-101.89,74.04,-140.38,51.11,-173.96,37.72,-191.43,84.42,-83.87,54.11,-132.46,35.01,-131.37,90.15,-136.83,72.95,-162.77,56.02,-184.06,52.75,-198.8,41.55,-214.08,86.05,-170.68,113.63,-140.1,146.12,-118.54,163.86,-97.52,167.41,-121.27,139.29,-143.38,107.07,-167.4,88.51,-184.33,59.03,-208.63,-62.06,-138.1,-70.19,-116.33],"slotPose":[1,0,0,1,0,0],"edges":[7,8,8,9,9,10,10,11,11,12,12,13,13,14,14,15,15,16,16,17,17,18,18,19,19,20,20,21,21,22,22,23,23,24,24,25,25,26,26,27,27,28,28,29,29,30,30,31,31,32,32,33,33,34,34,35,35,36,36,37,37,38,38,39,39,40,40,41,41,42,42,43,43,44,44,45,45,46,46,47,47,48,48,49,49,50,50,51,51,52,52,53,53,54,54,55,55,56,56,57,57,58,58,59,59,60,60,61,61,62,62,63,63,64,64,65,65,66,66,67,67,68,68,69,69,70,70,0,0,1,1,2,2,3,3,4,4,5,5,6,6,7],"path":"Skirt Copy","userEdges":[],"type":"mesh","transform":{},"triangles":[60,56,59,59,57,58,55,52,54,109,56,60,61,109,60,56,52,55,109,52,56,61,110,109,47,49,50,108,50,51,108,51,52,109,108,52,108,47,50,47,48,49,107,108,109,110,107,109,45,47,108,92,45,108,62,110,61,107,92,108,45,46,47,62,111,110,43,44,45,92,43,45,93,92,107,110,106,107,106,93,107,111,106,110,41,42,43,63,111,62,92,41,43,40,41,92,100,93,106,93,40,92,63,112,111,97,40,93,111,100,106,105,100,111,100,90,93,112,105,111,90,97,93,39,37,38,105,101,100,40,36,39,64,112,63,101,94,100,97,91,40,91,36,40,64,113,112,113,102,112,36,33,35,94,90,100,35,33,34,102,105,112,91,32,36,32,33,36,103,102,113,90,79,97,102,101,105,79,91,97,102,95,101,98,90,94,101,89,94,31,32,91,79,31,91,89,98,94,95,89,101,65,113,64,98,80,90,80,79,90,65,104,113,104,103,113,95,81,89,81,99,89,89,99,98,99,80,98,103,96,102,96,95,102,66,88,65,88,104,65,26,31,79,104,96,103,26,27,31,80,75,79,96,82,95,82,81,95,75,26,79,27,30,31,67,88,66,75,25,26,83,96,104,28,29,30,27,28,30,88,83,104,99,76,80,76,75,80,87,88,67,87,83,88,82,78,81,68,87,67,83,82,96,81,77,99,77,76,99,87,84,83,69,87,68,78,77,81,69,86,87,83,78,82,86,84,87,84,78,83,70,86,69,70,1,86,86,85,84,73,78,84,72,77,78,73,72,78,85,73,84,0,1,70,71,114,76,71,76,77,75,23,25,1,85,86,115,75,76,72,71,77,23,24,25,22,23,75,17,22,75,115,17,75,114,115,76,17,18,22,3,73,85,2,3,85,1,2,85,18,21,22,18,19,21,3,72,73,19,20,21,3,4,72,4,71,72,4,114,71,15,17,115,74,115,114,5,74,114,5,114,4,74,9,115,9,11,115,11,15,115,15,16,17,12,14,15,11,12,15,5,6,74,6,9,74,12,13,14,9,10,11,6,7,9,8,7,9,36,37,39,52,53,54,56,57,59],"weights":[3,6,0.50383,8,0.34761,10,0.14855,3,6,0.5604,8,0.31782,10,0.12178,3,6,0.74798,8,0.19568,10,0.05634,3,6,0.99937,8,0.00011,10,0.00052,1,6,1,1,6,1,1,6,1,1,6,1,1,6,1,2,6,0.98167,7,0.01833,2,6,0.941,7,0.059,2,6,0.9169,7,0.0831,2,6,0.81321,7,0.18679,2,6,0.81437,7,0.18563,2,6,0.77644,7,0.22356,2,6,0.60502,7,0.39498,2,6,0.45515,7,0.54485,2,6,0.43808,7,0.56192,2,6,0.05895,7,0.94105,1,7,1,2,7,0.99963,8,0.00037,2,7,0.99119,8,0.00881,2,7,0.92509,8,0.07491,2,7,0.75688,8,0.24312,2,7,0.57647,8,0.42353,2,7,0.48551,8,0.51449,2,7,0.18626,8,0.81374,2,7,0.01085,8,0.98915,1,8,1,1,8,1,2,8,0.96434,13,0.03566,2,8,0.76159,13,0.23841,2,8,0.41594,13,0.58406,2,8,0.31314,13,0.68686,2,8,0.27626,13,0.72374,2,8,0.2693,13,0.7307,2,8,0.2164,13,0.7836,2,8,0.13839,13,0.86161,2,8,0.1365,13,0.8635,2,8,0.1419,13,0.8581,2,8,0.10691,13,0.89309,3,8,0.00174,13,0.97554,10,0.02272,2,13,0.93113,10,0.06887,2,13,0.58729,10,0.41271,2,13,0.29625,10,0.70375,3,13,0.22522,12,0.0002,10,0.77458,3,13,0.06532,12,0.00277,10,0.9319,3,13,0.03643,12,0.01552,10,0.94805,2,12,0.02294,10,0.97706,2,12,0.03965,10,0.96035,2,12,0.12998,10,0.87002,2,12,0.30897,10,0.69103,2,12,0.48636,10,0.51364,2,12,0.56721,10,0.43279,2,12,0.56779,10,0.43221,2,12,0.65212,10,0.34788,2,12,0.85642,10,0.14358,2,12,0.99565,10,0.00435,1,12,1,2,12,0.98653,10,0.01347,1,12,1,1,12,1,1,12,1,1,12,1,2,12,0.53872,10,0.46128,4,6,0.03055,8,0.09969,12,0.00564,10,0.86413,3,6,0.09919,8,0.27169,10,0.62913,3,6,0.18918,8,0.37009,10,0.44072,3,6,0.25195,8,0.39486,10,0.35319,3,6,0.31337,8,0.39982,10,0.28681,3,6,0.43033,8,0.37695,10,0.19272,2,6,0.87587,7,0.12413,2,6,0.94055,7,0.05945,2,6,0.99997,10,0.00003,2,6,0.99795,7,0.00205,2,7,0.53123,8,0.46877,2,7,0.59303,8,0.40697,2,7,0.6356,8,0.3644,2,7,0.58888,8,0.41112,2,8,0.72086,13,0.27914,2,8,0.78066,13,0.21934,2,8,0.87112,13,0.12888,2,7,0.00371,8,0.99629,3,6,0.00438,7,0.03655,8,0.95907,4,6,0.24344,7,0.25083,8,0.49468,10,0.01105,4,6,0.68615,7,0.00352,8,0.24742,10,0.06291,4,6,0.39951,7,0.00983,8,0.43556,10,0.15509,4,6,0.25833,7,0.00535,8,0.49003,10,0.24629,4,6,0.11081,8,0.36935,13,0.00257,10,0.51727,2,8,0.20181,13,0.79819,2,8,0.25817,13,0.74183,2,8,0.27327,13,0.72673,2,13,0.61108,10,0.38892,2,13,0.7051,10,0.2949,2,8,0.0038,13,0.9962,2,8,0.05996,13,0.94004,2,8,0.2172,13,0.7828,2,8,0.16395,13,0.83605,2,8,0.3934,13,0.6066,2,8,0.88272,13,0.11728,2,13,0.51551,10,0.48449,2,13,0.47137,10,0.52863,2,13,0.57591,10,0.42409,2,13,0.14283,12,0.85717,5,6,0.00005,8,0.05777,13,0.26013,12,0.01041,10,0.67164,2,12,0.16658,10,0.83342,2,12,0.14179,10,0.85821,2,12,0.2958,10,0.7042,2,12,0.20753,10,0.79247,2,12,0.59601,10,0.40399,2,12,0.66042,10,0.33958,2,12,0.71072,10,0.28928,2,12,0.95462,10,0.04538,2,12,0.24506,10,0.75494,3,6,0.76058,7,0.15085,8,0.08857,3,6,0.67298,7,0.27635,8,0.05068],"width":331,"height":238,"name":"Skirt Copy","uvs":[0.29564,0.04041,0.29646,0.09432,0.27584,0.17347,0.25522,0.31456,0.19666,0.42009,0.10347,0.5302,0.02346,0.62541,0,0.70112,0,0.75962,0.05068,0.70226,0.04821,0.75503,0.06718,0.74012,0.07542,0.82156,0.08779,0.88006,0.11666,0.82614,0.13728,0.78829,0.14305,0.81926,0.15378,0.80664,0.19337,0.89612,0.24285,0.99132,0.27584,1,0.28986,0.9592,0.31708,0.91103,0.35255,0.88464,0.38224,0.86285,0.38059,0.8445,0.40121,0.87776,0.44245,0.95232,0.47791,0.99017,0.49771,1,0.52657,0.94544,0.53895,0.89153,0.57606,0.94544,0.61235,0.97756,0.66019,1,0.66101,0.95806,0.65276,0.91906,0.68328,0.98329,0.7006,0.9982,0.6973,0.95462,0.67833,0.8835,0.72617,0.94659,0.77401,0.97756,0.7905,0.90185,0.83174,0.94544,0.83009,0.9007,0.87133,0.92364,0.87215,0.88464,0.90267,0.93053,0.92411,0.88579,0.93731,0.81582,0.94061,0.75159,0.93978,0.71717,0.97195,0.78485,0.98185,0.73094,0.9703,0.669,0.95381,0.62885,0.99504,0.66556,1,0.68735,1,0.61279,0.9769,0.53823,0.88947,0.45794,0.79627,0.40747,0.69483,0.33062,0.60245,0.24459,0.55379,0.17576,0.53317,0.11612,0.49936,0.0427,0.45977,0.00715,0.42018,0,0.35172,0,0.24615,0.46138,0.27997,0.39141,0.29316,0.3375,0.12491,0.58985,0.37564,0.74929,0.37564,0.64147,0.38141,0.51414,0.39543,0.41091,0.53977,0.79288,0.51668,0.68161,0.48286,0.5107,0.45894,0.37535,0.4474,0.29735,0.39296,0.26982,0.32615,0.18953,0.38719,0.15512,0.42595,0.15282,0.48533,0.16085,0.54802,0.50956,0.5942,0.69423,0.62225,0.83991,0.76163,0.81697,0.71462,0.73209,0.6107,0.57035,0.54142,0.42926,0.50101,0.35585,0.64204,0.80779,0.55049,0.60361,0.49276,0.6082,0.65936,0.58526,0.6074,0.47629,0.55627,0.38682,0.54637,0.32488,0.51255,0.26064,0.64699,0.44303,0.73029,0.5715,0.82844,0.66211,0.88205,0.75044,0.89277,0.65064,0.80782,0.55773,0.7105,0.45679,0.65441,0.38567,0.56534,0.28359,0.19952,0.57984,0.17497,0.67133]}],"name":"Skirt Copy"},{"display":[{"bonePose":[40,-0.9139708902740612,0.4057797576661998,-0.4057797576661998,-0.9139708902740612,-72.3652273664905,-202.12733356058905,39,0.9610690305242938,-0.27630837585403356,0.27630837585403356,0.9610690305242938,-51.34516016755782,-208.489477456506,31,-0.516084917684775,0.8565374234312817,-0.8565374234312817,-0.516084917684775,-28.76201795434204,-269.80194917842067,35,-0.27982901403099214,0.9600498543859286,-0.9600498543859286,-0.27982901403099214,-60.167138090380355,-215.10230631632328,25,-0.5765749260789212,0.81704427947149,-0.81704427947149,-0.5765749260789212,-9.77819639754136,-299.6343647544271],"vertices":[-302.6,-111.36,-291.3,-114.53,-274.58,-126.74,-265.54,-140.07,-244.75,-135.79,-230.74,-147.54,-210.18,-169.47,-203.4,-175.8,-208.37,-159.08,-201.59,-166.53,-190.29,-183.71,-189.38,-173.54,-190.29,-165.41,-183.29,-172.18,-174.69,-172.42,-178.32,-178.06,-163.18,-187.78,-145.77,-194.79,-149.61,-183.95,-154.58,-176.03,-148.48,-175.81,-132.23,-182.06,-117.54,-190.43,-115.51,-198.56,-109.86,-204.67,-100.14,-216.2,-101.73,-204.21,-96.08,-209.41,-91.11,-216.19,-83.65,-221.63,-78.91,-222.53,-79.35,-214.39,-81.84,-210.55,-75.29,-212.13,-75.74,-215.98,-79.81,-230.22,-73.94,-236.55,-68.52,-244.45,-66.26,-263.66,-61.51,-263.66,-56.99,-279.26,-51.79,-278.81,-48.86,-285.82,-45.92,-302.08,-39.13,-294.86,-36.42,-286.49,-31,-284.91,-24.9,-288.98,-26.03,-296.44,-31.71,-304.58,-31.94,-321.3,-22.68,-331.46,-9.57,-333.73,5.79,-328.99,14.85,-317.69,15.52,-304.58,9.87,-294.41,0.83,-287.63,-9.78,-271.81,-9.79,-265.48,-15.89,-258.47,-26.51,-247.17,-26.96,-241.75,-33.51,-236.32,-30.8,-231.35,-46.39,-217.56,-31.93,-216.88,-33.29,-206.26,-47.52,-202.42,-54.3,-200.38,-51.81,-197.45,-40.06,-200.84,-41.65,-192.03,-51.36,-172.13,-87.29,-175.07,-105.82,-157.89,-106.05,-165.35,-125.25,-152.01,-148.98,-137.99,-156.67,-139.8,-171.14,-119.2,-202.55,-110.84,-217.47,-112.18,-251.6,-102.91,-298.82,-101.89,-306.79,-106.07,-75.68,-205.88,-68.23,-195.72,-51.29,-209.06,-54.22,-217.64,-64.62,-218.77,-29.14,-279.11,-19.65,-276.17,-17.16,-288.96,-8.81,-288.73,-12.64,-292.57,-1.8,-291.9],"slotPose":[1,0,0,1,0,0],"edges":[85,84,84,83,83,82,82,81,81,80,80,79,79,78,78,77,77,76,76,75,75,74,74,73,73,72,72,71,71,70,70,69,69,68,68,67,67,66,66,65,65,64,64,63,63,62,62,61,61,60,60,59,59,58,58,57,57,56,56,55,55,54,54,53,53,52,52,51,51,50,50,49,49,48,48,47,47,46,46,45,45,44,44,43,43,42,42,41,41,40,40,39,39,38,38,37,37,36,36,35,35,34,34,33,33,32,32,31,31,30,30,29,29,28,28,27,27,26,26,25,25,24,24,23,23,22,22,21,21,20,20,19,19,18,18,17,17,16,16,15,15,14,14,13,13,12,12,11,11,10,10,9,9,8,8,7,7,6,6,5,5,4,4,3,3,2,2,1,1,0,0,85],"path":"left arm","userEdges":[],"type":"mesh","transform":{},"triangles":[96,56,55,96,55,54,53,96,54,95,96,53,52,95,53,96,57,56,51,50,95,50,49,95,51,95,52,49,48,95,96,94,57,94,58,57,95,94,96,95,93,94,92,58,94,93,92,94,58,92,59,92,60,59,48,93,95,47,92,93,48,47,93,92,91,60,91,61,60,47,91,92,91,41,61,41,39,61,46,91,47,39,63,61,61,63,62,46,45,91,45,41,91,39,37,63,65,67,66,63,65,64,42,41,45,89,65,63,37,89,63,88,68,65,44,42,45,43,42,44,70,73,72,37,36,90,37,90,89,87,73,70,89,88,65,40,39,41,88,69,68,87,74,73,69,87,70,89,90,88,90,69,88,38,37,39,90,86,69,86,87,69,33,86,90,34,33,90,86,74,87,26,74,86,32,27,86,27,26,86,32,86,33,76,75,74,29,31,30,28,32,31,29,28,31,28,27,32,26,22,74,22,76,74,23,22,26,24,23,26,24,26,25,22,21,76,21,77,76,21,20,77,20,78,77,79,78,20,14,79,19,19,79,20,16,18,17,16,19,18,14,12,79,16,14,19,12,80,79,15,14,16,13,12,14,12,8,80,8,81,80,5,82,8,8,82,81,9,8,12,9,12,11,5,4,82,6,5,8,4,83,82,2,83,4,3,2,4,2,1,83,1,84,83,0,84,1,0,85,84,70,72,71,65,68,67,36,35,90,35,34,90,9,11,10,6,8,7],"weights":[1,40,1,1,40,1,1,40,1,1,40,1,1,40,1,1,40,1,1,40,1,1,40,1,1,40,1,1,40,1,1,40,1,1,40,1,1,40,1,1,40,1,1,40,1,1,40,1,1,40,1,1,40,1,1,40,1,1,40,1,1,40,1,1,40,1,1,40,1,1,40,1,1,40,1,1,40,1,1,40,1,1,40,1,1,40,1,1,40,1,1,40,1,2,31,0.00328,40,0.99672,3,31,0.01407,35,0.0006,40,0.98533,3,31,0.17097,35,0.2649,40,0.56413,3,31,0.35781,35,0.29876,40,0.34344,3,31,0.78989,35,0.12497,40,0.08514,3,31,0.90238,35,0.05416,40,0.04347,4,25,0.00047,31,0.98927,35,0.00222,40,0.00803,2,25,0.03977,31,0.96023,2,25,0.0625,31,0.9375,2,25,0.29749,31,0.70251,2,25,0.39689,31,0.60311,2,25,0.71381,31,0.28619,2,25,0.95567,31,0.04433,2,25,0.92275,31,0.07725,2,25,0.85479,31,0.14521,2,25,0.97253,31,0.02747,1,25,1,1,25,1,1,25,1,1,25,1,1,25,1,1,25,1,1,25,1,1,25,1,1,25,1,1,25,1,2,25,0.99888,31,0.00112,2,25,0.74562,31,0.25438,2,25,0.53173,31,0.46827,2,25,0.23144,31,0.76856,2,25,0.004,31,0.996,2,31,0.99847,39,0.00153,2,31,0.98266,39,0.01734,2,31,0.96509,39,0.03491,2,31,0.40539,39,0.59461,1,39,1,1,39,1,1,39,1,3,35,0.52812,40,0.01479,39,0.45709,3,35,0.63161,40,0.02936,39,0.33903,2,35,0.67973,39,0.32027,3,35,0.67905,40,0.01715,39,0.30381,3,35,0.59953,40,0.22324,39,0.17723,3,35,0.04478,40,0.9489,39,0.00633,1,40,1,1,40,1,1,40,1,1,40,1,1,40,1,1,40,1,1,40,1,1,40,1,1,40,1,1,40,1,1,40,1,3,31,0.03562,35,0.0324,40,0.93197,3,35,0.33195,40,0.62741,39,0.04064,3,31,0.01104,35,0.00209,39,0.98687,3,31,0.62377,35,0.07864,39,0.29759,3,31,0.47325,35,0.45602,40,0.07073,1,25,1,2,25,0.87854,31,0.12146,2,25,0.99995,31,0.00005,2,25,0.99817,31,0.00183,1,25,1,1,25,1],"width":324,"height":233,"name":"left arm","uvs":[0.01294,0.95933,0.04782,0.94575,0.09944,0.89337,0.12734,0.83615,0.19151,0.85457,0.23476,0.80414,0.29823,0.71005,0.31916,0.68289,0.30381,0.75467,0.32474,0.72266,0.35962,0.64894,0.36241,0.69259,0.35962,0.72751,0.38124,0.69841,0.40774,0.69744,0.39658,0.67319,0.44332,0.63148,0.49703,0.60142,0.48517,0.64797,0.46983,0.68192,0.48866,0.68289,0.53881,0.65607,0.58415,0.62018,0.59043,0.58526,0.60787,0.55908,0.63786,0.50961,0.63298,0.56102,0.65042,0.53871,0.66576,0.50961,0.68878,0.48633,0.70343,0.48245,0.70203,0.51737,0.69436,0.53386,0.71459,0.52707,0.71319,0.51058,0.70064,0.44947,0.71877,0.42231,0.73551,0.38836,0.74249,0.30592,0.75714,0.30592,0.77109,0.23899,0.78713,0.24093,0.7962,0.21086,0.80527,0.14102,0.82619,0.17206,0.83456,0.20795,0.8513,0.21474,0.87014,0.19728,0.86665,0.16527,0.84912,0.13036,0.84842,0.05858,0.87702,0.01493,0.91748,0.00523,0.96491,0.0256,0.99281,0.0741,0.9949,0.13036,0.97746,0.174,0.94956,0.2031,0.91678,0.271,0.91678,0.29816,0.89794,0.32823,0.86516,0.37672,0.86377,0.4,0.84354,0.42328,0.85191,0.44462,0.80378,0.50379,0.84842,0.5067,0.84423,0.55229,0.80029,0.56878,0.77936,0.57751,0.78704,0.59011,0.82331,0.57557,0.81843,0.61339,0.78843,0.69875,0.67752,0.68614,0.62033,0.75986,0.61963,0.72785,0.56034,0.78508,0.4871,0.84521,0.46338,0.83745,0.41868,0.92583,0.32172,0.96172,0.27569,0.9559,0.17036,0.99567,0.02458,1,0,0.98209,0.71335,0.55388,0.73636,0.59753,0.78868,0.5403,0.77961,0.50344,0.74752,0.49859,0.85704,0.23962,0.88633,0.25223,0.89401,0.19739,0.91981,0.19836,0.90796,0.18187,0.94144,0.18478]}],"name":"left arm"},{"display":[{"bonePose":[20,-0.1926932314718839,-0.9812590476244908,0.9812590476244908,-0.1926932314718839,-6.430174420749795,-372.0688449703693,21,-0.4574083640870928,-0.8892567618315699,0.8892567618315699,-0.4574083640870928,-12.06784020131938,-358.9962314387684,27,-0.8964864303834406,-0.4430711908241798,0.4430711908241798,-0.8964864303834406,-10.683028126869372,-341.8707417955944,23,0.9780386043496788,-0.20842381918037173,0.20842381918037173,0.9780386043496788,12.181603139885643,-363.159763309871,22,0.8061348847280657,-0.5917318206962239,0.5917318206962239,0.8061348847280657,13.572772892153512,-371.9658945103684,29,0.4863353804234905,-0.8737722230354652,0.8737722230354652,0.4863353804234905,9.220705128448667,-371.278358198512,26,0.3789716688603929,-0.9254082743314804,0.9254082743314804,0.3789716688603929,2.485895687328015,-375.7257553914544],"vertices":[-15.14,-397.12,-17.52,-382.76,-21.38,-381.97,-22.36,-372.86,-23.65,-366.32,-22.36,-364.25,-25.83,-358.6,-25.23,-355.53,-30.48,-349.3,-22.07,-345.94,-22.36,-340.58,-19.59,-341.27,-18.9,-336.23,-15.44,-337.42,-10.89,-332.57,-7.91,-336.92,-3.76,-333.75,-2.07,-330.39,14.16,-330.58,17.53,-343.46,20.2,-348.51,29.9,-355.54,32.48,-362.76,44.26,-371.87,45.03,-376.21,46.16,-382.66,30.2,-377.21,31.36,-379.77,32.49,-382.26,41.49,-396.51,24.37,-386.62,31.6,-401.57,21.4,-401.67,16.25,-396.42,15.66,-401.93,6.35,-398.3,-2.17,-389.79,-3.35,-396.72,-5.14,-401.94,-14.45,-352.47,-10.58,-351.37,-9.29,-354.34,-6.53,-353.85,-4.05,-356.42,-2.96,-354.93,1.1,-360.48,5.65,-365.14,10.8,-369.19,16.34,-373.65,21.99,-376.62,24.76,-377.51,21.49,-372.26,15.45,-366.82,11.19,-363.06,7.53,-360.09,7.83,-358.51,10.99,-359,14.36,-360.09,19.12,-362.96,21.69,-366.23,24.56,-369.39,27.33,-373.25,30.1,-375.63,-17.52,-351.67,-16.13,-349.69,-14.74,-348.01,-14.45,-345.33,-13.36,-343.75,-10.88,-342.86,-11.18,-340.08,-4.35,-338.9,-0.69,-343.65,3.77,-345.63,5.95,-342.27,6.24,-339.3,5.74,-337.52,8.22,-338.21,9.91,-342.17,9.61,-345.44,-1.97,-339.89,0.11,-339.1,3.77,-340.69,-3.66,-336.43,-1.97,-335.54,0,-333.06,3.57,-333.56,7.53,-355.14,8.62,-350.38,10.4,-348.8,6.14,-348.01,6.94,-345.93,-6.13,-343.16,-3.46,-348.01,-1.87,-349.89,2.48,-351.78,-11.87,-361.76,-6.62,-362.26,-1.68,-363.85,-10.69,-367.61,-15.04,-363.65,-16.72,-361.37,-15.53,-370.18,-10.59,-379.39,-11.38,-383.25,-7.32,-375.14,-2.07,-376.13,3.18,-374.05,-2.07,-365.93,-2.77,-370.19,2.58,-382.56,6.25,-383.35,12.29,-376.23,15.75,-382.57,17.83,-389.8,-20.24,-346.75,-19.7,-352.82,-16.88,-353.83,-14.54,-354.5,-11.48,-355.45,-7.28,-356.59,3.64,-364.76,6.7,-367.4,12.34,-370.94,8.08,-369.5,13.96,-372.79,20.02,-375.86,24.04,-375.43,18.88,-368.54,36.88,-371.71,38.62,-377.72,28.42,-360.39,23.85,-354.55,19.96,-351.68,16.11,-348.98,12.88,-348.62,-3.02,-340.87,-1.34,-344.36,2.74,-345.91,4.72,-346.94,0.34,-345.31,2.08,-344.24,0.28,-343.69,4.96,-344.9,3.76,-344.23,-1.1,-341.84,-10.77,-358.83,-8.13,-359.36,-8.48,-364.73,-4.96,-365.69,-0.56,-369.13,24.36,-371.37,26.79,-374.82,28.02,-377.06,30.06,-378.63,23,-369.36,33.3,-376.84,37.17,-377.75,42.18,-373.8,38.34,-372.81,42.03,-377.67,-15.52,-343.15,-16.65,-346.45,-18.31,-349.52,-15.57,-354.77,-13.35,-355.63,-9.99,-356.13,-5.71,-357.05,-18.59,-356.71],"slotPose":[1,0,0,1,0,0],"edges":[8,9,9,10,10,11,11,12,12,13,13,14,14,15,15,16,16,17,17,18,18,19,19,20,20,21,21,22,22,23,23,24,24,25,25,26,26,27,27,28,28,29,29,30,30,31,31,32,32,33,33,34,34,35,35,36,36,37,37,38,38,0,0,1,1,2,2,3,3,4,4,5,5,6,6,7,7,8],"path":"Head","userEdges":[],"type":"mesh","transform":{},"triangles":[128,22,23,157,23,24,129,159,25,159,24,25,158,128,23,159,157,24,157,158,23,159,129,157,129,158,157,155,128,158,156,155,158,156,158,129,61,22,128,62,61,128,155,62,128,131,20,21,153,26,27,26,62,155,30,27,28,60,130,22,61,60,22,130,21,22,32,30,31,32,113,30,30,50,153,30,153,27,33,113,32,60,59,130,130,131,21,50,152,153,152,26,153,26,152,62,152,151,62,151,61,62,150,60,61,58,131,130,59,58,130,132,20,131,50,151,152,150,61,151,126,150,151,50,126,151,112,49,30,30,49,50,154,59,60,150,154,60,51,150,126,49,51,126,50,49,126,113,112,30,57,132,131,58,57,131,51,154,150,112,125,49,49,125,51,127,59,154,51,127,154,125,48,51,127,58,59,48,127,51,76,18,19,77,76,19,52,58,127,112,111,125,111,48,125,57,133,132,132,133,20,133,19,20,57,56,133,56,134,133,52,57,58,48,124,127,124,52,127,56,86,134,53,57,52,124,122,52,133,134,19,33,35,113,35,110,113,110,112,113,86,87,134,85,17,18,134,78,19,78,77,19,111,124,48,35,33,34,110,111,112,122,47,52,47,53,52,87,88,134,53,56,57,76,85,18,111,122,124,47,121,53,88,78,134,123,122,111,106,123,111,110,106,111,36,110,35,75,85,76,55,86,56,123,47,122,123,121,47,46,54,53,121,46,53,54,56,53,54,55,56,90,78,88,89,90,88,87,89,88,74,76,77,73,74,77,78,73,77,109,106,110,90,73,78,86,94,87,94,89,87,142,73,90,36,109,110,74,75,76,106,121,123,55,45,86,45,94,86,46,120,54,45,55,54,120,45,54,84,17,85,73,81,74,138,142,90,138,90,89,120,46,121,149,120,121,106,149,121,94,138,89,142,143,73,81,80,75,80,85,75,74,81,75,105,106,109,143,81,73,44,94,45,94,137,138,72,143,142,138,72,142,149,107,120,97,45,120,137,140,143,137,143,72,138,137,72,140,141,81,141,80,81,143,140,81,107,97,120,83,84,80,141,144,80,94,93,137,93,139,137,80,84,85,36,105,109,108,149,106,105,108,106,36,103,105,43,44,45,137,139,140,139,141,140,97,43,45,103,102,105,44,93,94,96,43,97,93,92,139,92,136,139,141,139,71,139,136,71,144,141,71,79,83,80,144,79,80,83,16,84,16,17,84,136,144,71,108,107,149,43,96,166,70,82,79,102,104,105,104,108,105,79,144,135,92,91,136,135,144,136,91,135,136,79,82,83,135,91,83,79,135,83,91,79,83,42,92,93,44,42,93,82,16,83,107,148,97,148,96,97,108,148,107,91,70,79,37,0,36,0,103,36,43,42,44,82,15,16,38,0,37,40,91,92,42,40,92,96,146,166,98,148,108,104,98,108,42,43,166,70,15,82,98,147,148,91,15,70,147,96,148,119,42,166,146,119,166,69,15,91,40,68,91,41,40,42,41,42,119,68,69,91,65,66,40,40,66,68,101,98,104,147,95,96,95,146,96,165,41,119,146,165,119,66,67,68,102,101,104,0,1,103,95,145,146,145,165,146,69,14,15,98,95,147,118,40,41,165,118,41,13,14,69,103,1,102,1,101,102,99,95,98,39,65,40,145,164,118,165,145,118,39,40,118,164,39,118,68,67,69,67,13,69,101,99,98,95,164,145,1,3,101,117,39,164,160,13,67,100,164,95,99,100,95,2,3,1,39,64,65,167,163,164,100,167,164,163,117,164,66,160,67,63,64,39,116,63,39,163,116,39,161,160,66,161,66,65,160,11,13,101,5,99,163,39,117,64,161,65,11,12,13,5,100,99,162,161,64,161,11,160,167,116,163,4,5,101,3,4,101,114,11,161,63,162,64,5,167,100,162,114,161,115,63,116,167,115,116,115,162,63,114,9,11,115,114,162,5,6,167,7,115,167,6,7,167,9,114,115,7,9,115,9,10,11,7,8,9,26,156,25,156,129,25,26,155,156,30,28,29],"weights":[1,20,1,2,21,0.35983,20,0.64017,2,21,0.60523,20,0.39477,2,21,0.99349,20,0.00651,2,21,0.97302,27,0.02698,2,21,0.92761,27,0.07239,2,21,0.65269,27,0.34731,2,21,0.4741,27,0.5259,2,21,0.17061,27,0.82939,2,21,0.03943,27,0.96057,2,21,0.00002,27,0.99998,1,27,1,1,27,1,1,27,1,2,23,0.00001,27,0.99999,3,21,0.00098,23,0.0511,27,0.94792,3,21,0.00128,23,0.19524,27,0.80348,2,23,0.23457,27,0.76543,3,21,0.00008,23,0.41257,27,0.58735,3,21,0.01521,23,0.62787,27,0.35693,3,21,0.00999,23,0.80643,27,0.18358,2,23,0.98218,27,0.01782,2,23,0.99922,27,0.00078,1,23,1,1,23,1,1,23,1,2,22,0.62516,23,0.37484,2,22,0.80814,23,0.19186,2,22,0.98607,23,0.01393,1,22,1,2,29,0.49685,22,0.50315,1,29,1,2,26,0.01216,29,0.98784,2,26,0.44465,29,0.55535,2,26,0.7992,29,0.2008,3,20,0.00402,26,0.99436,29,0.00162,2,20,0.57747,26,0.42253,2,20,0.96928,26,0.03072,1,20,1,4,21,0.50774,29,0.00006,23,0.00634,27,0.48586,5,21,0.45938,20,0.00351,29,0.00195,23,0.04314,27,0.49201,6,21,0.65352,20,0.0153,26,0.00066,29,0.006,23,0.063,27,0.26152,6,21,0.53583,20,0.03177,26,0.00214,29,0.01307,23,0.13296,27,0.28423,6,21,0.50431,20,0.08114,26,0.01019,29,0.03369,23,0.20708,27,0.16358,6,21,0.42748,20,0.06207,26,0.00746,29,0.02945,23,0.25025,27,0.22327,6,21,0.25371,20,0.14529,26,0.0467,29,0.11356,23,0.37496,27,0.06577,7,21,0.06438,20,0.09246,26,0.08692,29,0.32399,22,0.00364,23,0.41852,27,0.01009,6,21,0.00107,20,0.00234,26,0.00061,29,0.51821,22,0.26421,23,0.21355,2,22,0.98902,23,0.01098,2,22,0.95606,23,0.04394,2,22,0.91095,23,0.08905,2,22,0.68025,23,0.31975,3,29,0.01837,22,0.29655,23,0.68507,7,21,0.00717,20,0.00549,26,0.00299,29,0.0343,22,0.0033,23,0.9429,27,0.00384,6,21,0.08176,20,0.04263,26,0.01641,29,0.07903,23,0.72267,27,0.0575,6,21,0.08639,20,0.03425,26,0.00993,29,0.04869,23,0.73605,27,0.08469,6,21,0.03524,20,0.01033,26,0.00192,29,0.01248,23,0.88114,27,0.05889,4,21,0.00666,20,0.00014,23,0.96321,27,0.03,2,23,0.9958,27,0.0042,2,22,0.06434,23,0.93566,2,22,0.2641,23,0.7359,2,22,0.49092,23,0.50908,2,22,0.50579,23,0.49421,3,21,0.37571,23,0.00031,27,0.62398,3,21,0.25543,23,0.0015,27,0.74307,3,21,0.16604,23,0.00399,27,0.82998,3,21,0.03952,23,0.00148,27,0.95899,3,21,0.00881,23,0.00079,27,0.9904,5,21,0.01319,20,0.00001,29,0.00002,23,0.00352,27,0.98325,2,23,0.00022,27,0.99978,4,21,0.01689,20,0.00005,23,0.13883,27,0.84423,5,21,0.08708,20,0.00285,29,0.00091,23,0.25669,27,0.65246,5,21,0.09133,20,0.00511,29,0.00156,23,0.40891,27,0.49308,5,21,0.04333,20,0.00111,29,0.00007,23,0.41747,27,0.53803,4,21,0.02265,20,0.00017,23,0.38734,27,0.58985,4,21,0.01429,20,0.00001,23,0.36137,27,0.62433,4,21,0.01429,20,0.00001,23,0.41067,27,0.57503,4,21,0.0274,20,0.00038,23,0.49607,27,0.47615,5,21,0.04451,20,0.0017,29,0.00007,23,0.55134,27,0.40237,5,21,0.03225,20,0.00031,29,0.00003,23,0.20031,27,0.7671,4,21,0.02723,20,0.00023,23,0.25035,27,0.72219,5,21,0.03713,20,0.00064,29,0.00003,23,0.34884,27,0.61337,3,21,0.00565,23,0.16739,27,0.82696,3,21,0.00506,23,0.20676,27,0.78818,3,21,0.00128,23,0.24713,27,0.75159,3,21,0.00255,23,0.30297,27,0.69448,6,21,0.10387,20,0.02421,26,0.00351,29,0.02004,23,0.68516,27,0.16321,6,21,0.07754,20,0.00826,26,0.00012,29,0.00293,23,0.62966,27,0.28149,5,21,0.05288,20,0.0036,29,0.00047,23,0.6396,27,0.30345,6,21,0.09295,20,0.00772,26,0.00005,29,0.00274,23,0.51422,27,0.38232,5,21,0.06718,20,0.00373,29,0.00076,23,0.49893,27,0.42939,5,21,0.06878,20,0.00089,29,0.00037,23,0.09649,27,0.83347,6,21,0.21828,20,0.01026,26,0.00012,29,0.00486,23,0.20625,27,0.56023,6,21,0.25632,20,0.0195,26,0.00083,29,0.00971,23,0.27219,27,0.44146,6,21,0.19766,20,0.02773,26,0.00235,29,0.01614,23,0.44781,27,0.30832,5,21,0.95134,20,0.03955,26,0.00059,29,0.00263,23,0.00588,6,21,0.61202,20,0.23169,26,0.02049,29,0.03765,23,0.08608,27,0.01206,6,21,0.28004,20,0.29596,26,0.08673,29,0.12163,23,0.19732,27,0.01832,5,21,0.59941,20,0.39016,26,0.00022,29,0.00389,23,0.00633,2,21,0.99692,27,0.00308,2,21,0.94346,27,0.05654,2,21,0.87455,20,0.12545,2,21,0.09708,20,0.90292,2,21,0.06328,20,0.93672,2,21,0.00986,20,0.99014,3,20,0.49799,26,0.50132,23,0.0007,5,21,0.0018,20,0.03155,26,0.7682,29,0.19098,23,0.00747,6,21,0.21403,20,0.39269,26,0.12444,29,0.12418,23,0.13865,27,0.00602,5,21,0.05173,20,0.61571,26,0.21607,29,0.07252,23,0.04397,2,20,0.1015,26,0.8985,2,26,0.95942,29,0.04058,2,29,0.96707,22,0.03293,2,29,0.98813,22,0.01187,2,26,0.07415,29,0.92585,3,21,0.1322,23,0.00009,27,0.8677,3,21,0.40608,23,0.00022,27,0.5937,4,21,0.51546,29,0.00001,23,0.00116,27,0.48336,5,21,0.59679,20,0.00018,29,0.00006,23,0.00521,27,0.39776,6,21,0.65143,20,0.01612,26,0.00021,29,0.00199,23,0.02559,27,0.30466,6,21,0.59024,20,0.08966,26,0.00746,29,0.01887,23,0.10012,27,0.19364,7,21,0.12376,20,0.10266,26,0.17217,29,0.22832,22,0.00179,23,0.34253,27,0.02877,7,21,0.03921,20,0.06034,26,0.1538,29,0.35832,22,0.07278,23,0.30949,27,0.00606,6,21,0.00048,20,0.00105,26,0.00027,29,0.55025,22,0.19647,23,0.25148,7,21,0.02235,20,0.03464,26,0.17519,29,0.38439,22,0.13245,23,0.24758,27,0.0034,6,21,0.00022,20,0.00047,26,0.00012,29,0.38614,22,0.49535,23,0.11769,3,29,0.02909,22,0.93868,23,0.03223,2,22,0.77386,23,0.22614,3,22,0.47038,23,0.52775,27,0.00187,3,22,0.2142,23,0.78563,27,0.00017,3,22,0.25002,23,0.74993,27,0.00005,3,22,0.10603,23,0.88194,27,0.01204,4,21,0.00514,22,0.04941,23,0.84574,27,0.09971,3,21,0.0078,23,0.84801,27,0.14419,5,21,0.01475,20,0.00025,29,0.00003,23,0.73355,27,0.25142,5,21,0.03523,20,0.00201,29,0.00026,23,0.67498,27,0.28752,6,21,0.05733,20,0.00184,26,0.00002,29,0.0008,23,0.18041,27,0.75959,6,21,0.11101,20,0.00424,26,0.00002,29,0.00167,23,0.24306,27,0.64,6,21,0.10224,20,0.00716,26,0.00026,29,0.00304,23,0.38287,27,0.50442,6,21,0.0971,20,0.0073,26,0.00013,29,0.00276,23,0.45558,27,0.43713,6,21,0.10743,20,0.00756,26,0.00042,29,0.00372,23,0.30663,27,0.57423,6,21,0.08382,20,0.00546,26,0.0002,29,0.0023,23,0.34988,27,0.55834,6,21,0.08653,20,0.00565,26,0.00031,29,0.00275,23,0.29199,27,0.61276,6,21,0.07573,20,0.00449,26,0.00005,29,0.00148,23,0.43067,27,0.48758,5,21,0.07609,20,0.00386,29,0.00113,23,0.39171,27,0.5272,5,21,0.06119,20,0.00166,29,0.0005,23,0.23491,27,0.70174,6,21,0.82881,20,0.03205,26,0.00083,29,0.00439,23,0.03016,27,0.10376,6,21,0.6725,20,0.12354,26,0.01015,29,0.02121,23,0.07321,27,0.09939,6,21,0.60512,20,0.30547,26,0.0112,29,0.02217,23,0.04951,27,0.00653,6,21,0.36951,20,0.39829,26,0.10488,29,0.05266,23,0.06781,27,0.00684,6,21,0.12206,20,0.31704,26,0.33852,29,0.13649,23,0.08272,27,0.00318,2,22,0.43216,23,0.56784,2,22,0.62573,23,0.37427,3,29,0.05112,22,0.61287,23,0.33601,3,29,0.01865,22,0.72536,23,0.256,2,22,0.32488,23,0.67512,3,22,0.47661,23,0.52336,27,0.00003,3,22,0.31693,23,0.68303,27,0.00004,3,22,0.08877,23,0.91121,27,0.00002,3,22,0.18698,23,0.8129,27,0.00012,3,22,0.1212,23,0.87878,27,0.00003,3,21,0.02526,23,0.00095,27,0.97379,3,21,0.13761,23,0.00101,27,0.86138,3,21,0.27154,23,0.00031,27,0.72815,5,21,0.59265,20,0.0001,29,0.00004,23,0.00331,27,0.40391,6,21,0.654,20,0.00935,26,0.00013,29,0.00091,23,0.01112,27,0.32449,6,21,0.72089,20,0.0218,26,0.0007,29,0.00515,23,0.0482,27,0.20326,6,21,0.55226,20,0.09904,26,0.00996,29,0.02754,23,0.14863,27,0.16257,3,21,0.64302,23,0.00012,27,0.35685],"width":108,"height":241,"name":"Head","uvs":[0.43236,0.02003,0.41036,0.07959,0.37461,0.08288,0.36544,0.12067,0.35353,0.14778,0.36544,0.15641,0.33336,0.17982,0.33886,0.19256,0.29028,0.21844,0.36819,0.2324,0.36544,0.25459,0.39111,0.25171,0.39753,0.27266,0.42961,0.26773,0.47178,0.28786,0.49928,0.26978,0.53778,0.28293,0.55336,0.2969,0.70369,0.29608,0.73486,0.24267,0.75961,0.22172,0.84944,0.19256,0.87328,0.16257,0.98236,0.12478,0.98947,0.10672,1,0.08,0.85219,0.10259,0.86288,0.09197,0.87328,0.08164,0.95669,0.02249,0.79811,0.06357,0.86503,0.00154,0.77061,0.00113,0.72294,0.0229,0.71744,0,0.63128,0.0151,0.55244,0.05042,0.54144,0.02167,0.52494,0,0.43878,0.20529,0.47453,0.20981,0.48644,0.19749,0.51211,0.19954,0.53503,0.18886,0.54511,0.19502,0.58269,0.17202,0.62486,0.15271,0.67253,0.13587,0.72386,0.11738,0.77611,0.10506,0.80178,0.10136,0.77153,0.12313,0.71561,0.14573,0.67619,0.16134,0.64228,0.17366,0.64503,0.18023,0.67436,0.17818,0.70553,0.17366,0.74953,0.16175,0.77336,0.14819,0.79994,0.13505,0.82561,0.11903,0.85128,0.10917,0.41036,0.20858,0.42319,0.21679,0.43603,0.22378,0.43878,0.23487,0.44886,0.24144,0.47178,0.24514,0.46903,0.25664,0.53228,0.26157,0.56619,0.24185,0.60744,0.23364,0.62761,0.2476,0.63036,0.25993,0.62578,0.26732,0.64869,0.26444,0.66428,0.24801,0.66153,0.23446,0.55428,0.25746,0.57353,0.26075,0.60744,0.25418,0.53869,0.27184,0.55428,0.27554,0.57261,0.28581,0.60561,0.28375,0.64228,0.1942,0.65236,0.21392,0.66886,0.22049,0.62944,0.22378,0.63678,0.2324,0.51578,0.24391,0.54053,0.22378,0.55519,0.21597,0.59553,0.20817,0.46261,0.16668,0.51119,0.16462,0.55703,0.15805,0.47361,0.14244,0.43328,0.15887,0.41769,0.16832,0.42869,0.13176,0.47453,0.09356,0.46719,0.07754,0.50478,0.11122,0.55336,0.10711,0.60194,0.11574,0.55336,0.14942,0.54694,0.13176,0.59644,0.08041,0.63036,0.07713,0.68628,0.1067,0.71836,0.08041,0.73761,0.05042,0.38513,0.22897,0.39013,0.20383,0.41624,0.19959,0.4379,0.19686,0.46624,0.19287,0.50513,0.18814,0.60624,0.15428,0.63457,0.14333,0.68679,0.12864,0.64735,0.13462,0.70179,0.12092,0.7579,0.10823,0.79512,0.10997,0.74735,0.1386,0.91401,0.1254,0.93012,0.10051,0.83568,0.17246,0.79346,0.19661,0.75735,0.20856,0.72179,0.21976,0.69179,0.22125,0.54457,0.25337,0.56013,0.23893,0.5979,0.23246,0.61624,0.22822,0.57568,0.23495,0.59179,0.23943,0.57513,0.24167,0.61846,0.23669,0.60735,0.23943,0.56235,0.24939,0.47284,0.17886,0.49728,0.17667,0.49402,0.1544,0.52662,0.15038,0.56736,0.13614,0.79813,0.12686,0.82065,0.11251,0.83191,0.10321,0.85091,0.09674,0.78547,0.13521,0.88082,0.10415,0.9167,0.10037,0.96315,0.11676,0.92761,0.12086,0.96174,0.10068,0.42885,0.24397,0.41829,0.23026,0.40299,0.21748,0.42832,0.19573,0.4489,0.19218,0.48004,0.19005,0.51963,0.18627,0.40035,0.18768]}],"name":"Head"},{"display":[{"bonePose":[28,0.954188121518404,-0.2992073340564686,0.2992073340564686,0.954188121518404,18.083709010381263,-331.57170612290804,37,0.9751493543055628,0.22154849761946727,-0.22154849761946727,0.9751493543055628,81.97123899540551,-356.9038600841618,46,0.7571090875308832,0.6532884734771867,-0.6532884734771867,0.7571090875308832,154.478316124115,-341.22559828166777,38,0.9776366571268188,0.2103011332396908,-0.2103011332396908,0.9776366571268188,106.73417490404256,-352.5597140018189,32,0.9040825496607784,-0.42735786338719234,0.42735786338719234,0.9040825496607784,53.61871656981464,-343.47956225871235],"vertices":[-5.83,-286.01,0.74,-268.81,10.94,-254.07,32.68,-245.95,48.37,-237.44,67.46,-226.86,66.89,-241.04,72.94,-247.27,83.71,-247.09,93.73,-241.04,103.75,-229.89,107.72,-221.39,109.61,-211.95,115.28,-211.95,129.08,-225.17,133.99,-233.3,146.28,-218.74,155.04,-233.68,169.03,-244.07,182.45,-246.15,200.21,-241.43,215.34,-232.35,226.11,-223.28,236.89,-211.96,239.33,-231.6,237.64,-249.75,232.35,-262.78,224.6,-273.57,241.18,-256.55,241.18,-266.38,225.16,-292.84,197.57,-320.43,149.18,-358.79,115.16,-377.69,100.33,-381.3,101.47,-378.56,104.68,-370.91,102.41,-362.97,98.06,-367.13,95.41,-370.91,98.62,-376.01,96.54,-385.27,85.2,-393.77,51.56,-403.94,42.68,-403.94,54.77,-395.1,72.16,-381.49,73.48,-372.8,70.27,-368.07,58.74,-358.81,53.63,-356.16,47.97,-359.56,44.94,-355.22,20.75,-344.63,9.41,-341.79,-3.44,-334.04,-0.23,-324.78,-4.2,-318.92,-5.83,-311.55,6.2,-313.82,37,-322.14,58.36,-334.62,72.16,-341.79,78.77,-343.69,81.99,-340.48,83.5,-325.93,94.27,-340.1,97.68,-343.5,100.7,-338.4,103.91,-334.81,112.8,-332.93,126.49,-328.01,158.62,-315.72,181.3,-302.87,208.33,-287.76,218.54,-279.45,128.58,-247.06,155.04,-253.49,184.9,-264.45,82.08,-256.12,66.01,-260.85,37.85,-271.05,22.16,-278.99,19.32,-291.66,45.78,-295.81,74.32,-295.81,98.52,-297.33,121.77,-296.39,136.89,-296.4,158.25,-301.31,122.34,-316.23,129.14,-316.99,91.34,-315.1,73.38,-313.58,48.62,-312.63,27.26,-309.99,106.65,-265.58,98.14,-290.71,125.93,-273.33,147.1,-273.52,175.83,-279.01],"slotPose":[1,0,0,1,0,0],"edges":[0,1,1,2,2,3,3,4,4,5,5,6,6,7,7,8,8,9,9,10,10,11,11,12,12,13,13,14,14,15,15,16,16,17,17,18,18,19,19,20,20,21,21,22,22,23,23,24,24,25,25,26,26,27,27,28,28,29,29,30,30,31,31,32,32,33,33,34,34,35,35,36,36,37,37,38,38,39,39,40,40,41,41,42,42,43,43,44,44,45,45,46,46,47,47,48,48,49,49,50,50,51,51,52,52,53,53,54,54,55,55,56,56,57,57,58,58,0],"path":"Right Wing","userEdges":[],"type":"mesh","transform":{},"triangles":[25,21,24,22,23,24,30,27,29,21,22,24,30,75,27,26,21,25,27,20,26,20,21,26,78,20,75,74,75,30,31,74,30,75,20,27,74,78,75,31,73,74,100,78,74,73,100,74,32,72,31,78,19,20,72,73,31,89,100,73,100,77,78,77,18,78,18,19,78,72,89,73,89,99,100,99,77,100,32,71,72,77,17,18,77,15,17,88,99,89,88,89,72,91,88,72,71,91,72,99,76,77,76,15,77,15,16,17,88,98,99,98,76,99,33,37,32,37,70,32,70,71,32,90,87,91,91,87,88,87,98,88,98,96,76,76,14,15,37,67,70,36,37,33,10,11,14,11,13,14,71,90,91,96,9,76,9,10,76,10,14,76,67,68,70,70,90,71,87,97,98,97,96,98,70,92,90,92,86,90,90,86,87,86,97,87,69,92,70,68,69,70,34,35,33,11,12,13,35,36,33,79,9,96,97,79,96,79,8,9,65,92,69,38,67,37,68,66,69,66,65,69,63,67,38,85,79,97,67,66,68,85,80,79,64,66,67,63,64,67,92,85,86,39,48,38,48,63,38,86,85,97,41,39,40,47,48,39,47,39,41,46,47,41,64,65,66,42,46,41,93,85,92,65,93,92,64,62,65,45,46,42,43,45,42,48,49,62,48,62,63,62,61,65,79,7,8,61,93,65,63,62,64,80,7,79,84,80,85,84,81,80,94,84,85,94,85,93,61,94,93,80,6,7,50,61,62,49,50,62,80,4,6,6,4,5,81,3,4,81,4,80,60,94,61,50,52,61,52,60,61,53,60,52,43,44,45,51,52,50,82,81,84,95,84,94,60,95,94,95,83,84,83,82,84,2,3,81,82,2,81,54,59,53,59,95,60,53,59,60,56,59,54,1,2,82,59,83,95,83,0,82,0,1,82,59,0,83,58,0,59,55,56,54,56,57,59,57,58,59,29,27,28],"weights":[3,28,0.97053,37,0.02213,46,0.00734,3,28,0.94606,37,0.03765,46,0.01628,3,28,0.91896,37,0.05329,46,0.02774,4,28,0.86032,37,0.08225,38,0.00143,46,0.056,4,28,0.80373,37,0.10554,38,0.00501,46,0.08572,4,28,0.77954,37,0.11454,38,0.00666,46,0.09926,5,28,0.75843,32,0.00035,37,0.11928,38,0.01049,46,0.11145,5,28,0.68865,32,0.00181,37,0.13478,38,0.02132,46,0.15344,5,28,0.56444,32,0.00336,37,0.15353,38,0.03809,46,0.24058,5,28,0.45368,32,0.00239,37,0.15808,38,0.04714,46,0.33872,5,28,0.37247,32,0.00054,37,0.15324,38,0.04599,46,0.42775,5,28,0.35107,32,0.00007,37,0.15106,38,0.04355,46,0.45425,4,28,0.34584,37,0.15065,38,0.04251,46,0.46099,4,28,0.34489,37,0.15044,38,0.04253,46,0.46214,5,28,0.32091,32,0.00002,37,0.14388,38,0.04433,46,0.49086,5,28,0.27739,32,0.00012,37,0.13109,38,0.04436,46,0.54704,4,28,0.23335,37,0.11701,38,0.03843,46,0.61121,4,28,0.20861,37,0.10687,38,0.03755,46,0.64697,4,28,0.12959,37,0.07077,38,0.02624,46,0.77341,4,28,0.06597,37,0.03761,38,0.01135,46,0.88507,4,28,0.01916,37,0.01129,38,0.00137,46,0.96818,3,28,0.00322,37,0.00196,46,0.99482,3,28,0.00024,37,0.00015,46,0.99961,1,46,1,1,46,1,3,28,0.00003,37,0.00004,46,0.99993,3,28,0.0005,37,0.00034,46,0.99916,3,28,0.00053,37,0.00033,46,0.99915,1,46,1,1,46,1,1,46,1,1,46,1,1,38,1,1,38,1,1,38,1,1,38,1,2,37,0.04653,38,0.95347,2,37,0.45615,38,0.54385,2,37,0.84131,38,0.15869,2,37,0.95609,38,0.04391,2,37,0.98776,38,0.01224,2,37,0.99986,38,0.00014,1,37,1,1,37,1,1,37,1,1,37,1,2,32,0.0644,37,0.9356,2,32,0.27183,37,0.72817,2,32,0.6515,37,0.3485,1,32,1,1,32,1,2,28,0.02148,32,0.97852,2,28,0.17703,32,0.82297,2,28,0.99431,32,0.00569,1,28,1,1,28,1,2,28,0.99897,37,0.00103,3,28,0.99684,37,0.00297,46,0.00019,3,28,0.9936,37,0.0056,46,0.00079,3,28,0.9937,37,0.00526,46,0.00104,3,28,0.97991,37,0.01503,46,0.00506,4,28,0.7535,32,0.21279,37,0.02923,46,0.00449,4,28,0.15671,32,0.75242,37,0.087,46,0.00387,4,28,0.09481,32,0.69338,37,0.20772,46,0.0041,5,28,0.12565,32,0.54616,37,0.31761,38,0.0028,46,0.00778,5,28,0.32457,32,0.28496,37,0.31882,38,0.0382,46,0.03345,5,28,0.07829,32,0.20179,37,0.65756,38,0.05062,46,0.01175,5,28,0.04383,32,0.11207,37,0.77136,38,0.06511,46,0.00762,5,28,0.07081,32,0.11555,37,0.5995,38,0.19595,46,0.01819,5,28,0.08681,32,0.09881,37,0.47139,38,0.31216,46,0.03082,5,28,0.07084,32,0.04858,37,0.26482,38,0.56451,46,0.05126,5,28,0.05745,32,0.01732,37,0.10924,38,0.67264,46,0.14335,5,28,0.02451,32,0.00073,37,0.02216,38,0.10602,46,0.84657,4,28,0.01077,37,0.00745,38,0.00701,46,0.97476,3,28,0.00163,37,0.001,46,0.99736,3,28,0.0008,37,0.00049,46,0.9987,5,28,0.29177,32,0.0012,37,0.13697,38,0.0542,46,0.51585,5,28,0.16941,32,0.00024,37,0.09131,38,0.04079,46,0.69824,4,28,0.04929,37,0.02903,38,0.00961,46,0.91208,5,28,0.59422,32,0.00472,37,0.15314,38,0.0366,46,0.21131,5,28,0.72318,32,0.00284,37,0.13005,38,0.01833,46,0.1256,4,28,0.87442,37,0.07618,38,0.00195,46,0.04744,4,28,0.93052,37,0.04649,38,0.00005,46,0.02294,3,28,0.95534,37,0.03135,46,0.01332,5,28,0.88541,32,0.00241,37,0.0737,38,0.00282,46,0.03566,5,28,0.64254,32,0.05,37,0.17649,38,0.03732,46,0.09365,5,28,0.39007,32,0.05958,37,0.23579,38,0.13301,46,0.18156,5,28,0.22424,32,0.02535,37,0.17567,38,0.22104,46,0.3537,5,28,0.14631,32,0.01041,37,0.11585,38,0.20269,46,0.52475,5,28,0.05628,32,0.00135,37,0.04369,38,0.09565,46,0.80304,5,28,0.12797,32,0.03223,37,0.17843,38,0.43506,46,0.22631,5,28,0.09719,32,0.01929,37,0.12844,38,0.46281,46,0.29227,5,28,0.34889,32,0.14867,37,0.31034,38,0.1115,46,0.08061,5,28,0.59671,32,0.14012,37,0.18996,38,0.02493,46,0.04827,5,28,0.91587,32,0.00692,37,0.05674,38,0.00098,46,0.01949,3,28,0.97246,37,0.0199,46,0.00764,5,28,0.40395,32,0.0099,37,0.16848,38,0.076,46,0.34166,5,28,0.41955,32,0.04402,37,0.21573,38,0.1145,46,0.2062,5,28,0.27019,32,0.00875,37,0.14755,38,0.10631,46,0.4672,5,28,0.16401,32,0.00245,37,0.09761,38,0.07887,46,0.65706,5,28,0.05407,32,0.00003,37,0.0336,38,0.02084,46,0.89146],"width":247,"height":192,"name":"Right Wing","uvs":[0,0.61418,0.02659,0.70376,0.06791,0.78054,0.15591,0.82287,0.21942,0.86717,0.2967,0.92229,0.29441,0.84846,0.31889,0.81598,0.36251,0.81696,0.40306,0.84846,0.44362,0.90654,0.45968,0.95084,0.46734,1,0.49029,1,0.54615,0.93115,0.56604,0.88882,0.61578,0.96462,0.65127,0.88685,0.70789,0.83271,0.76222,0.82189,0.83415,0.84649,0.89536,0.89374,0.93898,0.94099,0.98259,1,0.99254,0.89768,0.98565,0.80318,0.96423,0.73526,0.93286,0.67915,1,0.76775,1,0.71656,0.93515,0.57875,0.82344,0.43503,0.62755,0.2352,0.48982,0.13676,0.42976,0.11794,0.43441,0.13224,0.44736,0.17208,0.43818,0.21342,0.42058,0.19176,0.40987,0.17208,0.42287,0.1455,0.41446,0.09726,0.36855,0.05297,0.23235,0,0.19638,0,0.24535,0.04608,0.31575,0.11695,0.32111,0.16223,0.3081,0.18684,0.26142,0.23508,0.24076,0.24886,0.21781,0.23114,0.20556,0.25378,0.10762,0.3089,0.06171,0.32367,0.00968,0.36403,0.02269,0.41226,0.00662,0.44278,0,0.48117,0.0487,0.46936,0.17343,0.42604,0.25989,0.36107,0.31575,0.32367,0.34253,0.31382,0.35554,0.33056,0.36166,0.40636,0.40528,0.33253,0.41905,0.31481,0.43129,0.34139,0.4443,0.36009,0.48026,0.36993,0.53571,0.39553,0.66579,0.45951,0.75761,0.52645,0.86703,0.6052,0.90835,0.64851,0.54412,0.81714,0.65125,0.78367,0.77215,0.72657,0.35589,0.76989,0.29085,0.74528,0.17684,0.69212,0.11333,0.65078,0.10185,0.58482,0.20898,0.56317,0.32452,0.56317,0.42246,0.55529,0.51658,0.56021,0.57779,0.56021,0.66426,0.53462,0.51887,0.45685,0.54642,0.45292,0.39338,0.46276,0.32069,0.47064,0.22045,0.47556,0.13399,0.48934,0.45536,0.72067,0.42093,0.58974,0.53341,0.68031,0.61911,0.67932,0.73542,0.65078]}],"name":"Right Wing"},{"display":[{"bonePose":[19,0.5546992156114052,0.8320509480795582,-0.8320509480795582,0.5546992156114052,47.19927749224351,-321.55205038554664,30,0.25088689062883,0.9680164090089576,-0.9680164090089576,0.25088689062883,71.57552914689072,-280.4265491087317,43,-0.8944666137275598,0.44713474135516695,-0.44713474135516695,-0.8944666137275598,78.77689664314289,-222.3572899351297,47,0.4060987689642579,0.9138291907384628,-0.9138291907384628,0.4060987689642579,70.71764008877776,-217.0540471732978,42,0.18275033155387335,0.9831593544878416,-0.9831593544878416,0.18275033155387335,87.0460615006373,-212.8209692316519,44,0.6458575218931338,0.7634579630955853,-0.7634579630955853,0.6458575218931338,90.2211171030007,-202.85335056308816,34,0.3679622704687804,0.9298407215816372,-0.9298407215816372,0.3679622704687804,85.7754585975908,-226.7937559351971],"vertices":[25.87,-341.41,19.66,-329.32,22.17,-309.16,30.24,-300.42,43.01,-298.4,49.05,-292.86,48.22,-286.48,51.57,-281.44,50.06,-278.08,45.02,-276.06,35.11,-279.59,38.13,-267.49,45.02,-262.96,50.39,-262.79,50.23,-254.89,58.79,-250.36,66.19,-241.79,71.06,-232.89,68.7,-226.51,60.13,-218.61,64.66,-212.56,65.51,-205.5,70.38,-204.15,73.24,-198.11,74.41,-191.9,79.95,-202.48,80.29,-205.17,82.81,-203.33,83.15,-198.95,88.69,-193.91,104.31,-187.93,101.12,-195.76,100.28,-199.79,104.15,-204,104.31,-207.35,107.17,-211.04,102.64,-214.91,101.47,-225.16,104.99,-240.95,107,-253.38,106.17,-266.99,100.12,-279.42,97.77,-266.32,93.74,-283.11,87.86,-299.24,79.29,-315.7,76.44,-319.74,74.09,-309.83,73.92,-303.11,71.07,-303.94,70.06,-311.67,68.37,-315.54,71.91,-315.03,73.41,-319.4,77.79,-325.79,74.76,-337.72,67.03,-346.45,51.74,-347.93,36.79,-347.93,54.81,-286.98,62.53,-289.66,70.42,-294.54,53.63,-291.52,61.03,-295.21,65.56,-296.56,53.63,-295.37,60.01,-299.07,64.72,-300.25,47.58,-302.1,62.87,-302.43,76.97,-214.24,79.66,-228.19,85.38,-223.65,93.94,-225.83,86.21,-210.04,93.1,-207.18,97.3,-207.19,81.84,-209.88,96.95,-200.13,70.92,-215.24,72.1,-208.02,75.29,-202.98,80.09,-231.6,79.92,-242.85,76.39,-254.95,74.55,-264.36,73.38,-273.6,69.68,-279.81,59.6,-272.92,55.56,-266.88],"slotPose":[1,0,0,1,0,0],"edges":[1,2,2,3,3,4,4,5,5,6,6,7,7,8,8,9,9,10,10,11,11,12,12,13,13,14,14,15,15,16,16,17,17,18,18,19,19,20,20,21,21,22,22,23,23,24,24,25,25,26,26,27,27,28,28,29,29,30,30,31,31,32,32,33,33,34,34,35,35,36,36,37,37,38,38,39,39,40,40,41,41,42,42,43,43,44,44,45,45,46,46,47,47,48,48,49,49,50,50,51,51,52,52,53,53,54,54,55,55,56,56,57,57,58,58,0,0,1],"path":"Right ARm","userEdges":[],"type":"mesh","transform":{},"triangles":[73,37,38,41,42,40,36,34,35,83,38,39,42,83,39,40,42,39,84,83,42,36,76,34,83,73,38,31,29,30,34,76,33,76,32,33,83,82,73,76,78,32,75,76,36,73,75,36,37,73,36,73,74,75,32,78,31,78,29,31,72,74,73,43,86,42,86,85,42,85,84,42,75,78,76,75,28,78,28,29,78,44,61,43,61,87,43,82,72,73,74,27,75,27,28,75,87,86,43,77,74,72,70,77,72,82,71,72,48,61,44,45,47,44,47,48,44,77,26,27,77,27,74,71,70,72,17,82,83,79,70,71,18,79,71,80,26,77,70,80,77,84,16,83,16,17,83,80,81,26,26,81,25,81,23,25,82,17,71,17,18,71,55,53,54,79,80,70,60,87,61,51,53,55,85,15,84,15,16,84,56,57,51,56,51,55,86,88,85,89,15,85,49,61,48,22,23,81,80,22,81,88,89,85,64,61,49,67,64,49,51,52,53,87,88,86,18,19,79,79,20,80,21,22,80,20,21,80,64,60,61,50,69,49,69,67,49,19,20,79,51,69,50,57,68,51,60,88,87,59,88,60,68,69,51,58,68,57,63,60,64,58,0,68,0,1,68,89,13,15,13,14,15,59,7,88,66,63,64,66,64,67,69,66,67,68,66,69,63,62,60,62,59,60,7,8,88,66,65,63,65,62,63,1,2,68,68,65,66,8,89,88,9,13,89,8,9,89,62,6,59,6,7,59,2,3,68,9,12,13,5,6,62,5,62,65,68,5,65,68,4,5,9,11,12,3,4,68,10,11,9,23,24,25,47,46,45],"weights":[1,19,1,1,19,1,1,19,1,1,19,1,2,19,0.99319,30,0.00681,2,19,0.90675,30,0.09325,2,19,0.73389,30,0.26611,2,19,0.46291,30,0.53709,2,19,0.21934,30,0.78066,2,19,0.05562,30,0.94438,1,30,1,2,19,0.00422,30,0.99578,2,19,0.01027,30,0.98973,2,19,0.01109,30,0.98891,1,30,1,2,30,0.99701,43,0.00299,2,30,0.93437,43,0.06563,2,30,0.61564,43,0.38436,2,30,0.17234,43,0.82766,2,43,0.89469,47,0.10531,2,43,0.19749,47,0.80251,1,47,1,1,47,1,2,42,0.00136,47,0.99864,2,42,0.00013,47,0.99987,2,42,0.18624,47,0.81376,3,42,0.4343,43,0.00123,47,0.56447,3,42,0.81606,43,0.00028,47,0.18366,3,42,0.66381,44,0.29855,47,0.03764,2,42,0.11008,44,0.88992,1,44,1,2,34,0.01267,44,0.98733,2,34,0.09534,44,0.90466,2,34,0.26567,44,0.73433,2,34,0.3615,44,0.6385,2,34,0.44329,44,0.55671,3,30,0.00531,34,0.59004,44,0.40464,3,30,0.18431,34,0.75482,44,0.06088,2,30,0.75834,34,0.24166,2,30,0.93498,34,0.06502,3,19,0.00004,30,0.99242,34,0.00754,1,30,1,3,19,0.01269,30,0.98217,34,0.00513,2,19,0.36152,30,0.63848,2,19,0.92014,30,0.07986,1,19,1,1,19,1,1,19,1,1,19,1,1,19,1,1,19,1,1,19,1,1,19,1,1,19,1,1,19,1,1,19,1,1,19,1,1,19,1,1,19,1,2,19,0.72483,30,0.27517,2,19,0.90099,30,0.09901,1,19,1,2,19,0.87008,30,0.12992,2,19,0.98008,30,0.01992,1,19,1,2,19,0.9449,30,0.0551,2,19,0.99661,30,0.00339,1,19,1,2,19,0.99453,30,0.00547,1,19,1,4,34,0.00659,42,0.17971,43,0.19295,47,0.62075,3,30,0.52775,34,0.03352,43,0.43873,4,34,0.87998,42,0.00995,43,0.10878,47,0.0013,3,30,0.16943,34,0.80997,44,0.02061,3,42,0.94058,43,0.0072,47,0.05222,3,34,0.18088,42,0.14178,44,0.67734,3,34,0.28074,42,0.02204,44,0.69722,3,42,0.61958,43,0.03838,47,0.34204,2,34,0.05883,44,0.94117,1,47,1,1,47,1,2,42,0.03619,47,0.96381,2,30,0.78974,43,0.21026,2,30,0.99228,43,0.00772,2,30,0.99985,43,0.00015,1,30,1,1,30,1,2,19,0.04297,30,0.95703,2,19,0.09821,30,0.90179,2,19,0.02889,30,0.97111],"width":96,"height":160,"name":"Right ARm","uvs":[0.13229,0.04075,0.06754,0.11635,0.09379,0.24235,0.17779,0.29695,0.31079,0.30955,0.37379,0.3442,0.36504,0.3841,0.40004,0.4156,0.38429,0.4366,0.33179,0.44919,0.22854,0.42715,0.26004,0.50274,0.33179,0.53109,0.38779,0.53214,0.38604,0.58149,0.47529,0.60984,0.55229,0.66339,0.60304,0.71904,0.57854,0.75894,0.48929,0.80829,0.53654,0.84609,0.54529,0.89019,0.59604,0.89859,0.62579,0.93639,0.63804,0.97524,0.69579,0.90909,0.69929,0.89229,0.72554,0.90384,0.72904,0.93114,0.78679,0.96264,0.94954,1,0.91629,0.95109,0.90754,0.92589,0.94779,0.89964,0.94954,0.87864,0.97929,0.85554,0.93204,0.83139,0.91979,0.76734,0.95654,0.66864,0.97754,0.59094,0.96879,0.50589,0.90579,0.42819,0.88129,0.51009,0.83929,0.4051,0.77804,0.3043,0.68879,0.2014,0.65904,0.1762,0.63454,0.23815,0.63279,0.28015,0.60304,0.2749,0.59254,0.2266,0.57504,0.20245,0.61179,0.2056,0.62754,0.1783,0.67304,0.1384,0.64154,0.06385,0.56104,0.00925,0.40179,0,0.24604,0,0.4337,0.38095,0.5142,0.36415,0.59645,0.3337,0.42145,0.3526,0.49845,0.3295,0.5457,0.3211,0.42145,0.32845,0.48795,0.30535,0.53695,0.298,0.35845,0.28645,0.5177,0.28435,0.6647,0.8356,0.6927,0.74845,0.7522,0.7768,0.84145,0.76315,0.76095,0.86185,0.8327,0.8797,0.87645,0.8797,0.71545,0.8629,0.87295,0.9238,0.6017,0.8293,0.61395,0.87445,0.6472,0.90595,0.69714,0.7271,0.69539,0.65675,0.65864,0.58115,0.63939,0.52235,0.62714,0.4646,0.58864,0.42575,0.48364,0.4688,0.44164,0.5066]}],"name":"Right ARm"},{"display":[{"bonePose":[24,-0.9294548826213164,-0.3689357954595824,0.3689357954595824,-0.9294548826213164,4.230687440263242,-313.6612347308903,33,-0.9994385817114644,-0.033504050301071675,0.033504050301071675,-0.9994385817114644,-23.512194204583825,-324.8670956099129,41,-0.5596269098558746,0.8287446662061633,-0.8287446662061633,-0.5596269098558746,-78.88195732043737,-319.1659280708171,45,-0.006806731520562159,0.9999768339346704,-0.9999768339346704,-0.006806731520562159,-113.2696991279655,-264.2567429249894,48,0.3472630154286187,0.9377677740866464,-0.9377677740866464,0.3472630154286187,-113.27404184142584,-234.2360770239665,36,-0.8866075437998248,-0.46252250029295017,0.46252250029295017,-0.8866075437998248,-46.11949492289715,-325.62495722772314],"vertices":[-30.5,-209.72,-28.58,-232.3,-20.28,-248.28,-11.97,-264.25,2.3,-272.56,18.7,-284.7,19.46,-299.83,20.17,-313.67,-9.2,-329.21,-19.64,-335.82,-24.12,-337.52,-20.07,-344.55,-26.46,-346.26,-32.21,-357.33,-28.59,-370.11,-23.05,-381.4,-19.86,-389.94,-29.23,-389.94,-47.12,-373.95,-52.44,-349.66,-50.95,-334.75,-57.98,-337.52,-56.92,-351.15,-65.65,-347.53,-83.97,-333.47,-100.58,-317.29,-112.51,-293.01,-121.02,-275.54,-121.83,-254.02,-121.83,-229.1,-114,-205.25,-108.46,-198,-93.13,-191.94,-88.23,-191.93,-97.39,-206.31,-87.8,-232.94,-82.05,-214.19,-72.25,-222.08,-56.49,-209.94,-47.97,-205.46,-41.37,-204.61,-30.29,-201.41,-101.68,-215.61,-104.21,-237.26,-104.55,-251.45,-101.67,-264.29,-95.42,-277.98,-87.64,-292.34,-76.49,-303.83,-65.17,-312.45,-62.13,-300.12,-59.76,-294.03,-55.03,-304.01,-47.09,-312.96,-37.62,-316.85,-26.64,-312.46,-13.79,-309.25,-1.96,-305.02,9.36,-302.32,16.8,-300.62,-100.28,-243.19,-95.01,-239.6,-94.17,-262.61,-85.3,-257.75,-86.99,-267.24,-82.14,-266.61,-66.73,-253.53,-76.23,-256.9,-72.22,-266.4,-65.68,-265.13,-68.63,-274,-63.57,-274.42,-76.02,-276.53,-81.72,-278.43,-74.12,-291.51,-68.85,-285.38,-57.24,-284.13,-56.4,-263.24,-55.13,-249.31,-52.81,-236.01,-45,-232.43,-40.15,-260.49,-44.37,-279.27,-45.85,-290.46,-40.15,-300.79,-31.08,-302.06,-27.28,-281.38,-27.28,-263.66,-28.12,-251.42,-31.5,-277.8,-22.01,-287.29,-15.47,-284.34,-9.77,-281.8,-17.15,-271.47,3.31,-294.46,-5.55,-302.69,-13.35,-292.35,-27.07,-297.42,-33.4,-290.67,-70.33,-244.03,-80.24,-234.12,-84.67,-246.57],"slotPose":[1,0,0,1,0,0],"edges":[28,29,29,30,30,31,31,32,32,33,33,34,34,35,35,36,36,37,37,38,38,39,39,40,40,41,41,0,0,1,1,2,2,3,3,4,4,5,5,6,6,7,7,8,8,9,9,10,10,11,11,12,12,13,13,14,14,15,15,16,16,17,17,18,18,19,19,20,20,21,21,22,22,23,23,24,24,25,25,26,26,27,27,28],"path":"Left Wing","userEdges":[],"type":"mesh","transform":{},"triangles":[6,59,5,59,94,5,57,58,7,8,57,7,58,59,7,59,6,7,58,94,59,94,4,5,92,4,94,57,94,58,8,56,57,95,96,94,96,92,94,57,95,94,92,3,4,93,3,92,56,95,57,96,91,92,56,96,95,97,96,56,91,93,92,55,56,8,9,55,8,87,2,3,93,87,3,87,88,2,86,93,91,90,91,96,97,90,96,55,97,56,55,85,97,54,55,10,10,55,9,90,86,91,89,87,93,86,89,93,17,15,16,12,10,11,88,1,2,97,98,90,98,86,90,20,54,10,17,14,15,18,14,17,88,80,1,80,0,1,12,20,10,54,85,55,81,88,87,89,81,87,13,19,12,19,20,12,98,89,86,85,98,97,80,40,0,18,13,14,81,78,88,78,80,88,84,98,85,54,84,85,80,39,40,98,82,89,82,81,89,40,41,0,53,84,54,83,82,98,18,19,13,38,39,80,78,79,80,84,83,98,82,77,81,20,53,54,52,83,84,53,52,84,77,78,81,79,38,80,20,49,53,52,51,83,71,77,82,76,71,82,83,76,82,37,38,79,51,76,83,21,49,20,49,52,53,23,21,22,50,51,52,77,66,78,78,99,79,99,37,79,24,49,21,71,69,77,69,66,77,49,50,52,66,99,78,51,75,76,75,71,76,100,37,99,23,24,21,50,74,51,74,75,51,70,69,71,75,70,71,49,48,50,48,74,50,67,66,69,68,67,69,70,68,69,75,72,70,24,48,49,67,99,66,72,68,70,24,25,48,67,101,99,74,72,75,73,72,74,101,100,99,65,67,68,72,65,68,100,36,37,35,36,100,48,47,74,47,73,74,73,65,72,65,63,67,63,101,67,25,47,48,64,63,65,64,65,73,47,46,73,101,35,100,61,35,101,46,64,73,34,32,33,62,44,63,44,60,63,64,62,63,63,60,101,60,61,101,25,26,47,46,62,64,61,43,35,43,42,35,26,46,47,45,44,62,46,45,62,34,31,32,60,43,61,27,45,46,26,27,46,43,29,42,42,30,34,30,31,34,44,43,60,28,44,45,27,28,45,29,30,42,28,29,43,28,43,44,42,34,35],"weights":[5,24,0.29692,33,0.00631,41,0.0485,45,0.56997,48,0.0783,5,24,0.3498,33,0.01693,41,0.09088,45,0.48363,48,0.05877,5,24,0.4719,33,0.03057,41,0.1221,45,0.34439,48,0.03104,5,24,0.67214,33,0.03097,41,0.09875,45,0.1872,48,0.01094,5,24,0.86305,33,0.00827,41,0.04459,45,0.08153,48,0.00256,4,24,0.96049,41,0.01127,45,0.02806,48,0.00018,3,24,0.98735,41,0.00279,45,0.00987,2,24,0.9995,45,0.0005,2,24,0.98589,33,0.01411,3,24,0.36261,33,0.61463,36,0.02276,3,24,0.07476,33,0.85105,36,0.07419,3,24,0.00105,33,0.87457,36,0.12437,2,33,0.83388,36,0.16612,2,33,0.70179,36,0.29821,2,33,0.66616,36,0.33384,2,33,0.65571,36,0.34429,2,33,0.65387,36,0.34613,2,33,0.65477,36,0.34523,2,33,0.66491,36,0.33509,2,33,0.62227,36,0.37773,2,33,0.21893,36,0.78107,2,33,0.00056,36,0.99944,1,36,1,1,36,1,2,36,0.33086,41,0.66914,1,41,1,1,41,1,2,41,0.9906,45,0.0094,1,45,1,2,45,0.03378,48,0.96622,1,48,1,1,48,1,1,48,1,1,48,1,3,24,0.00014,45,0.00061,48,0.99925,5,24,0.0843,33,0.00401,41,0.04114,45,0.51354,48,0.35701,5,24,0.15823,33,0.00529,41,0.04364,45,0.59196,48,0.20088,5,24,0.18863,33,0.00686,41,0.05707,45,0.5856,48,0.16184,5,24,0.26859,33,0.00667,41,0.05226,45,0.57768,48,0.0948,5,24,0.28355,33,0.00614,41,0.04855,45,0.57616,48,0.08559,5,24,0.29047,33,0.00594,41,0.04713,45,0.57483,48,0.08163,5,24,0.29488,33,0.00566,41,0.0455,45,0.57483,48,0.07913,4,24,0.0013,33,0.00003,45,0.01083,48,0.98784,5,24,0.01158,33,0.00056,41,0.00269,45,0.56283,48,0.42235,5,24,0.01154,33,0.0009,41,0.02299,45,0.93255,48,0.03202,5,24,0.01313,33,0.00169,41,0.39059,45,0.59009,48,0.00449,5,24,0.01499,33,0.00348,41,0.85429,45,0.12657,48,0.00068,6,24,0.0146,33,0.00649,36,0.00261,41,0.94624,45,0.03003,48,0.00002,5,24,0.02463,33,0.0198,36,0.04664,41,0.89005,45,0.01888,5,24,0.03293,33,0.04502,36,0.33605,41,0.57247,45,0.01353,6,24,0.11024,33,0.10765,36,0.16052,41,0.56458,45,0.05662,48,0.00039,6,24,0.16301,33,0.12039,36,0.10654,41,0.51596,45,0.09258,48,0.00152,6,24,0.13944,33,0.19143,36,0.23654,41,0.38704,45,0.0453,48,0.00026,6,24,0.11697,33,0.42511,36,0.28936,41,0.15003,45,0.01852,48,0.00002,5,24,0.15122,33,0.77678,36,0.02354,41,0.03925,45,0.00921,6,24,0.62619,33,0.33005,36,0.00034,41,0.02897,45,0.01439,48,0.00005,5,24,0.95763,33,0.01467,41,0.01427,45,0.01334,48,0.00009,5,24,0.97983,33,0.00002,41,0.00788,45,0.01218,48,0.00008,4,24,0.98674,41,0.00365,45,0.0096,48,0.00002,3,24,0.98811,41,0.00262,45,0.00926,5,24,0.02968,33,0.00159,41,0.0223,45,0.73323,48,0.2132,5,24,0.05237,33,0.00263,41,0.04406,45,0.63418,48,0.26677,5,24,0.03385,33,0.00337,41,0.55065,45,0.29812,48,0.11402,6,24,0.08262,33,0.01832,36,0.01293,41,0.44088,45,0.33466,48,0.11059,6,24,0.06062,33,0.01412,36,0.00927,41,0.59367,45,0.24747,48,0.07484,6,24,0.08646,33,0.0319,36,0.02546,41,0.5081,45,0.26678,48,0.08131,6,24,0.17764,33,0.05647,36,0.04655,41,0.25761,45,0.37006,48,0.09166,6,24,0.12748,33,0.03786,36,0.03022,41,0.36384,45,0.34256,48,0.09803,6,24,0.13527,33,0.05706,36,0.04796,41,0.41258,45,0.27593,48,0.0712,6,24,0.16883,33,0.07237,36,0.06157,41,0.34056,45,0.28983,48,0.06684,6,24,0.14369,33,0.07488,36,0.06443,41,0.43947,45,0.22566,48,0.05188,6,24,0.16824,33,0.08773,36,0.07587,41,0.39641,45,0.22621,48,0.04554,6,24,0.1013,33,0.04957,36,0.04153,41,0.57076,45,0.1902,48,0.04665,6,24,0.06876,33,0.02972,36,0.02354,41,0.67465,45,0.16208,48,0.04125,6,24,0.07058,33,0.04588,36,0.06162,41,0.70338,45,0.09839,48,0.02016,6,24,0.1156,33,0.06846,36,0.07114,41,0.57157,45,0.14538,48,0.02784,6,24,0.19291,33,0.10264,36,0.08783,41,0.445,45,0.15459,48,0.01704,6,24,0.21004,33,0.06873,36,0.05578,41,0.31657,45,0.29551,48,0.05337,6,24,0.23023,33,0.05179,36,0.04012,41,0.24417,45,0.37036,48,0.06333,6,24,0.24702,33,0.03784,36,0.0278,41,0.18438,45,0.43296,48,0.06999,6,24,0.27973,33,0.02933,36,0.01766,41,0.14675,45,0.4588,48,0.06774,6,24,0.32569,33,0.05797,36,0.03666,41,0.25314,45,0.29037,48,0.03617,6,24,0.24617,33,0.17435,36,0.11931,41,0.24588,45,0.19141,48,0.02288,6,24,0.20249,33,0.24649,36,0.17525,41,0.22812,45,0.13275,48,0.0149,6,24,0.27585,33,0.3824,36,0.10611,41,0.14578,45,0.08128,48,0.00858,6,24,0.47502,33,0.32112,36,0.04744,41,0.08855,45,0.06284,48,0.00503,6,24,0.48961,33,0.16997,36,0.04843,41,0.13466,45,0.14523,48,0.01209,6,24,0.44701,33,0.09013,36,0.02657,41,0.15534,45,0.25608,48,0.02487,6,24,0.40932,33,0.03939,36,0.01325,41,0.16698,45,0.33595,48,0.03511,6,24,0.43259,33,0.15274,36,0.05558,41,0.16764,45,0.17416,48,0.01729,6,24,0.60507,33,0.13039,36,0.03688,41,0.10485,45,0.11358,48,0.00923,6,24,0.67998,33,0.09652,36,0.02674,41,0.08703,45,0.10242,48,0.00731,6,24,0.74545,33,0.06698,36,0.01789,41,0.07145,45,0.09259,48,0.00563,6,24,0.61766,33,0.07008,36,0.01657,41,0.10887,45,0.17366,48,0.01316,5,24,0.94776,33,0.00245,41,0.01723,45,0.03176,48,0.00079,6,24,0.93428,33,0.01574,36,0.00378,41,0.01998,45,0.02511,48,0.0011,6,24,0.77835,33,0.06647,36,0.01754,41,0.06118,45,0.07163,48,0.00482,6,24,0.54501,33,0.23988,36,0.04132,41,0.09013,45,0.07746,48,0.00619,6,24,0.40619,33,0.25416,36,0.06957,41,0.14075,45,0.11784,48,0.0115,6,24,0.17162,33,0.03693,36,0.02843,41,0.21322,45,0.4343,48,0.1155,6,24,0.12672,33,0.01363,36,0.00788,41,0.09161,45,0.50416,48,0.256,6,24,0.09342,33,0.01398,36,0.00882,41,0.26814,45,0.41508,48,0.20057],"width":142,"height":198,"name":"Left Wing","uvs":[0.64318,0.91017,0.65668,0.79614,0.71518,0.71546,0.77368,0.63478,0.87418,0.59283,0.98968,0.53151,0.99507,0.45511,1,0.38521,0.79318,0.30668,0.71968,0.27333,0.68818,0.26472,0.71668,0.22922,0.67168,0.22062,0.63118,0.16468,0.65668,0.10013,0.69568,0.04312,0.71818,0,0.65218,0,0.52618,0.08077,0.48868,0.2034,0.49918,0.27871,0.44968,0.26472,0.45718,0.19587,0.39568,0.21416,0.26668,0.28516,0.14968,0.36692,0.06568,0.48955,0.00568,0.57777,0,0.68642,0,0.81228,0.05518,0.93276,0.09418,0.96934,0.20218,1,0.23668,1,0.17218,0.92739,0.23968,0.79292,0.28018,0.88758,0.34918,0.84778,0.46018,0.9091,0.52018,0.93169,0.56668,0.93599,0.64468,0.95213,0.14198,0.8804,0.12412,0.77114,0.12174,0.69945,0.14198,0.63458,0.18601,0.56544,0.24076,0.49289,0.31931,0.43485,0.39905,0.39132,0.42047,0.45363,0.43713,0.48436,0.47045,0.434,0.52639,0.38876,0.59304,0.36913,0.6704,0.39132,0.76085,0.40754,0.84416,0.42888,0.9239,0.44253,0.97626,0.45107,0.15175,0.74114,0.18889,0.75926,0.19484,0.6431,0.25725,0.66761,0.24536,0.61966,0.27953,0.62286,0.38801,0.68893,0.32114,0.67188,0.34937,0.62392,0.39544,0.63032,0.37463,0.58556,0.41029,0.58343,0.32263,0.57277,0.28251,0.56318,0.336,0.49711,0.37315,0.52801,0.45487,0.53441,0.46082,0.63991,0.46973,0.71024,0.48608,0.77738,0.54106,0.79549,0.57523,0.65376,0.54551,0.55892,0.53511,0.50244,0.57523,0.45022,0.63913,0.44383,0.66587,0.54826,0.66587,0.63778,0.65993,0.69958,0.63615,0.56638,0.70302,0.51842,0.74908,0.53334,0.7892,0.54613,0.7372,0.59835,0.88133,0.48219,0.81892,0.44063,0.76394,0.49285,0.66736,0.46727,0.62278,0.50137,0.36275,0.73688,0.29291,0.78697,0.2617,0.72409]}],"name":"Left Wing"},{"display":[{"bonePose":[9,-0.08663412450019273,-0.996240196173636,0.996240196173636,-0.08663412450019273,2.755267160476736,-288.6670870671583,11,-0.4440097461062307,0.8960219558485609,-0.8960219558485609,-0.4440097461062307,3.2988320102295106,-282.09357679835114],"vertices":[9.2,-347.37,9.21,-340.38,3.86,-336.68,-3.67,-335.18,-9.84,-329.15,-16.35,-324.56,-22.85,-319.97,-21.07,-309.69,-23.4,-303.67,-17.65,-298.19,-11.89,-292.7,-9.56,-290.38,-12.44,-283.25,-16.55,-279.28,-25.05,-273.8,-31.76,-270.65,-34.5,-265.17,-35.87,-261.47,-40.73,-253.86,-40.58,-243.92,-40.45,-233.99,-39.63,-224.76,-38.8,-215.54,-37.98,-203.21,-35.23,-194.94,-30.17,-198.8,-25.1,-202.66,-20.51,-210.68,-15.92,-218.69,-12.57,-225.27,-9.21,-231.84,-4.83,-243.08,-1.68,-243.36,-0.31,-249.52,4.96,-250.34,10.24,-251.17,12.84,-250.48,18.08,-246.96,23.32,-243.42,28.56,-239.9,33.81,-236.37,43.12,-232.13,53.4,-230.07,59.17,-228.29,59.17,-236.51,55.94,-244.04,52.71,-251.58,45.03,-262.13,37.37,-272.68,29.55,-281.85,24.48,-284.73,19.42,-287.61,20.93,-293.9,27.8,-299.08,34.68,-304.25,41.39,-310.35,48.1,-316.44,51.87,-324.59,55.64,-332.74,54.27,-345.48,48.52,-347.67,46.05,-354.11,41.12,-357.81,32.96,-358.38,24.81,-358.94,18.37,-354.12,-1.28,-253.92,-11,-271.09,-14.2,-275.95,-5.69,-286.59,0.1,-288.42,6.33,-291.76,10.43,-294.03,13.32,-300.12,16.66,-310.45,18.95,-318.2,14.23,-324.74,9.98,-329.61,-0.97,-332.04,15.29,-334.47,18.64,-345.57],"slotPose":[1,0,0,1,0,0],"edges":[18,19,19,20,20,21,21,22,22,23,23,24,24,25,25,26,26,27,27,28,28,29,29,30,30,31,31,32,32,33,33,34,34,35,35,36,36,37,37,38,38,39,39,40,40,41,41,42,42,43,43,44,44,45,45,46,46,47,47,48,48,49,49,50,50,51,51,52,52,53,53,54,54,55,55,56,56,57,57,58,58,59,59,60,60,61,61,62,62,63,63,64,64,65,65,0,0,1,1,2,2,3,3,4,4,5,5,6,6,7,7,8,8,9,9,10,10,11,11,12,12,13,13,14,14,15,15,16,16,17,17,18],"path":"body","userEdges":[],"type":"mesh","transform":{},"triangles":[45,42,44,44,42,43,41,42,45,46,41,45,59,60,58,60,57,58,40,41,46,80,79,60,47,39,46,39,40,46,75,56,57,79,75,57,60,79,57,75,55,56,61,62,60,62,63,60,63,80,60,38,39,47,48,37,47,37,38,47,75,54,55,79,76,75,64,80,63,75,74,54,49,36,48,36,37,48,65,80,64,50,36,49,74,53,54,35,36,50,51,35,50,70,35,51,74,73,53,67,66,70,70,66,35,73,52,53,1,79,80,71,70,51,72,51,52,73,72,52,77,76,79,0,80,65,72,71,51,76,74,75,0,1,80,7,73,74,4,7,74,76,78,74,78,4,74,5,7,4,66,34,35,7,9,73,77,78,76,1,77,79,2,77,1,10,71,73,9,10,73,69,67,70,71,72,73,2,78,77,10,11,70,10,70,71,66,33,34,3,78,2,12,68,67,12,67,69,31,32,33,11,69,70,66,31,33,3,4,78,17,31,66,67,17,66,16,17,67,19,30,31,17,19,31,11,12,69,18,19,17,6,7,5,13,68,12,14,16,67,20,29,30,19,20,30,7,8,9,68,14,67,20,21,29,21,28,29,15,16,14,13,14,68,22,27,28,21,22,28,22,26,27,22,23,26,23,25,26,23,24,25],"weights":[1,9,1,1,9,1,1,9,1,1,9,1,1,9,1,1,9,1,1,9,1,1,9,1,1,9,1,2,9,0.99865,11,0.00135,2,9,0.9381,11,0.0619,2,9,0.80637,11,0.19363,2,9,0.28078,11,0.71922,2,9,0.09034,11,0.90966,2,9,0.00618,11,0.99382,1,11,1,1,11,1,1,11,1,1,11,1,1,11,1,1,11,1,1,11,1,1,11,1,1,11,1,1,11,1,1,11,1,1,11,1,1,11,1,1,11,1,1,11,1,1,11,1,1,11,1,1,11,1,1,11,1,1,11,1,1,11,1,1,11,1,1,11,1,1,11,1,1,11,1,1,11,1,1,11,1,1,11,1,1,11,1,1,11,1,1,11,1,1,11,1,1,11,1,2,9,0.00452,11,0.99548,2,9,0.06857,11,0.93143,2,9,0.16517,11,0.83483,2,9,0.45059,11,0.54941,2,9,0.837,11,0.163,2,9,0.97931,11,0.02069,2,9,0.99935,11,0.00065,1,9,1,1,9,1,1,9,1,1,9,1,1,9,1,1,9,1,1,9,1,1,9,1,1,9,1,1,9,1,1,9,1,2,9,0.03586,11,0.96414,2,9,0.08999,11,0.91001,2,9,0.09309,11,0.90691,2,9,0.62952,11,0.37048,2,9,0.68461,11,0.31539,2,9,0.74055,11,0.25945,2,9,0.77787,11,0.22213,2,9,0.82437,11,0.17563,2,9,0.91825,11,0.08175,2,9,0.93167,11,0.06833,2,9,0.95482,11,0.04518,2,9,0.97324,11,0.02676,2,9,0.99182,11,0.00818,2,9,0.97068,11,0.02932,2,9,0.98521,11,0.01479],"width":111,"height":164,"name":"body","uvs":[0.54988,0.07055,0.54988,0.11315,0.50174,0.13571,0.43386,0.1449,0.37832,0.18165,0.31969,0.20964,0.26107,0.23762,0.27711,0.30027,0.25613,0.33703,0.30797,0.37044,0.3598,0.40386,0.38079,0.41806,0.35487,0.4615,0.31784,0.48572,0.24132,0.51914,0.18084,0.53835,0.15616,0.57177,0.14382,0.59432,0.10008,0.64075,0.10131,0.70132,0.10254,0.76188,0.10995,0.81814,0.11736,0.87439,0.12476,0.94957,0.14945,1,0.19511,0.97646,0.24078,0.95291,0.28212,0.90404,0.32347,0.85518,0.35371,0.81508,0.38395,0.77498,0.42344,0.70648,0.45183,0.70481,0.46417,0.66722,0.51169,0.66221,0.55921,0.6572,0.58266,0.66137,0.62987,0.68288,0.67708,0.70439,0.72429,0.7259,0.7715,0.74741,0.85542,0.77331,0.94799,0.78584,1,0.7967,1,0.74658,0.97091,0.70063,0.94182,0.65469,0.8727,0.59037,0.80359,0.52604,0.73323,0.47007,0.68757,0.45253,0.6419,0.43499,0.65548,0.39656,0.7174,0.36503,0.77933,0.3335,0.83981,0.29632,0.90029,0.25915,0.93423,0.20944,0.96817,0.15974,0.95583,0.08205,0.90399,0.06869,0.88177,0.02942,0.83734,0.00687,0.7639,0.00343,0.69047,0,0.63246,0.02942,0.45547,0.64039,0.36783,0.53566,0.33907,0.506,0.41576,0.44118,0.46779,0.43005,0.52394,0.40966,0.56091,0.39576,0.58693,0.35869,0.61705,0.29566,0.63759,0.2484,0.59514,0.20854,0.5568,0.17888,0.45821,0.16405,0.60473,0.14923,0.63485,0.08157]}],"name":"body"},{"display":[{"path":"Eff1","type":"image","name":"Eff1","transform":{"y":-88.63,"x":18.39}},{"path":"Eff2","type":"image","name":"Eff2","transform":{"y":-64.13,"x":-8.61}},{"path":"Eff3","type":"image","name":"Eff3","transform":{"y":-14.13,"x":-15.61}}],"name":"Eff1"}]}],"aabb":{"width":501.33293140697674,"y":-488.3482931948718,"height":499.17999837515356,"x":-268.1629314069767},"bone":[{"name":"root","transform":{}},{"transform":{"y":-275.17,"x":5.47},"name":"mid","parent":"root"},{"transform":{"y":-10.81,"x":1.5},"name":"Shadow","parent":"root"},{"transform":{"y":-139.31,"x":-233.22},"name":"Effect","parent":"root"},{"length":159,"transform":{"y":30.69,"skX":88.93,"skY":88.93,"x":9.9},"parent":"mid","name":"bottom"},{"length":50,"transform":{"y":-4.79,"skX":-97.16,"skY":-97.16,"x":3.63},"parent":"mid","name":"Top"},{"length":121,"transform":{"y":33.92,"skX":46.56,"skY":46.56,"x":39.97},"parent":"bottom","name":"bone"},{"length":125,"transform":{"y":26.14,"skX":15.49,"skY":15.49,"x":47.54},"parent":"bottom","name":"bone2"},{"length":148,"transform":{"y":-6.78,"skX":-2.19,"skY":-2.19,"x":34.78},"parent":"bottom","name":"bone3"},{"length":37,"transform":{"y":-5.21,"skX":2.19,"skY":2.19,"x":9.43},"parent":"Top","name":"Body Top"},{"length":163,"transform":{"y":-30.17,"skX":-35.56,"skY":-35.56,"x":28.29},"parent":"bottom","name":"bone6"},{"length":70,"transform":{"y":-5.49,"skX":-146.48,"skY":-146.48,"x":2.84},"parent":"Top","name":"Body Bottom"},{"length":137,"transform":{"y":-39.28,"skX":-63.94,"skY":-63.94,"x":44.3},"parent":"bottom","name":"bone5"},{"length":151,"transform":{"y":-20.54,"skX":-29.45,"skY":-29.45,"x":39.99},"parent":"bottom","name":"bone4"},{"length":87,"transform":{"y":4.09,"skX":-70.76,"skY":-70.76,"x":16.85},"parent":"Body Top","name":"Left Wing"},{"length":94,"transform":{"y":9.28,"skX":71.17,"skY":71.17,"x":23.44},"parent":"Body Top","name":"Right Wing"},{"length":115,"transform":{"y":-12.93,"skX":-147.18,"skY":-147.18,"x":21.05},"parent":"Body Top","name":"Left Arm"},{"length":89,"transform":{"y":49.05,"skX":163.05,"skY":163.05,"x":43.83},"parent":"Body Top","name":"Right Arm"},{"length":36,"transform":{"y":8.52,"skX":-13.94,"skY":-13.94,"x":48.9},"parent":"Body Top","name":"head"},{"length":42,"transform":{"y":6.19,"skX":-11.77,"skY":-11.77,"x":13.71},"parent":"Right Arm","name":"bone7"},{"length":17,"transform":{"y":-1.71,"skX":7.8,"skY":7.8,"x":36.47},"parent":"head","name":"bone31"},{"length":15,"transform":{"y":-11.28,"skX":-8.31,"skY":-8.31,"x":25.93},"parent":"head","name":"bone30"},{"length":29,"transform":{"y":17.18,"skX":72.63,"skY":72.63,"x":29.89},"parent":"head","name":"bone34"},{"length":21,"transform":{"y":13.01,"skX":96.88,"skY":96.88,"x":22.01},"parent":"head","name":"bone35"},{"length":26,"transform":{"y":7.33,"skX":7.38,"skY":7.38,"x":3.04},"parent":"Left Wing","name":"bone23"},{"length":28,"transform":{"y":-6.07,"skX":7.36,"skY":7.36,"x":6.84},"parent":"Left Arm","name":"bone14"},{"length":18,"transform":{"y":7.91,"skX":41.18,"skY":41.18,"x":37.04},"parent":"head","name":"bone32"},{"length":9,"transform":{"y":-15.52,"skX":-44.79,"skY":-44.79,"x":9.28},"parent":"head","name":"bone36"},{"length":36,"transform":{"y":-13.88,"skX":6.39,"skY":6.39,"x":14.99},"parent":"Right Wing","name":"bone22"},{"length":26,"transform":{"y":12.84,"skX":48.01,"skY":48.01,"x":30.65},"parent":"head","name":"bone33"},{"length":53,"transform":{"y":2.53,"skX":19.16,"skY":19.16,"x":47.74},"parent":"bone7","name":"bone8"},{"length":59,"transform":{"y":-1.69,"skX":-4.14,"skY":-4.14,"x":35.32},"parent":"bone14","name":"bone15"},{"length":30,"transform":{"y":-0.73,"skX":-7.89,"skY":-7.89,"x":37.47},"parent":"bone22","name":"bone26"},{"length":22,"transform":{"y":0.18,"skX":-19.73,"skY":-19.73,"x":29.92},"parent":"bone23","name":"bone24"},{"length":10,"transform":{"y":-0.29,"skX":-7.06,"skY":-7.06,"x":55.48},"parent":"bone8","name":"bone9"},{"length":11,"transform":{"y":-1.33,"skX":-14.82,"skY":-14.82,"x":63.06},"parent":"bone15","name":"bone16"},{"length":24,"transform":{"skX":25.63,"skY":25.63,"x":22.62},"parent":"bone24","name":"bone25"},{"length":21,"transform":{"y":-0.02,"skX":38.1,"skY":38.1,"x":31.37},"parent":"bone26","name":"bone27"},{"length":45,"transform":{"y":-1.25,"skX":-0.66,"skY":-0.66,"x":25.11},"parent":"bone27","name":"bone28"},{"length":16,"transform":{"y":-10.32,"skX":-122.29,"skY":-122.29,"x":3.88},"parent":"bone16","name":"bone18"},{"length":230,"transform":{"y":8.08,"skX":49.81,"skY":49.81,"x":15.87},"parent":"bone16","name":"bone17"},{"length":62,"transform":{"y":-20.88,"skX":-83.52,"skY":-83.52,"x":26.06},"parent":"bone25","name":"bone19"},{"length":9,"transform":{"y":3.96,"skX":11.06,"skY":11.06,"x":13.46},"parent":"bone9","name":"bone10"},{"length":9,"transform":{"y":8.14,"skX":85.03,"skY":85.03,"x":1.55},"parent":"bone9","name":"bone12"},{"length":10,"transform":{"y":-1.3,"skX":-29.7,"skY":-29.7,"x":10.38},"parent":"bone10","name":"bone11"},{"length":27,"transform":{"y":-2.23,"skX":-33.64,"skY":-33.64,"x":64.75},"parent":"bone19","name":"bone20"},{"length":103,"transform":{"y":1.04,"skX":28.65,"skY":28.65,"x":49.06},"parent":"bone28","name":"bone29"},{"length":10,"transform":{"y":-1.14,"skX":-87.4,"skY":-87.4,"x":9.58},"parent":"bone12","name":"bone13"},{"length":32,"transform":{"y":-0.2,"skX":-20.71,"skY":-20.71,"x":30.02},"parent":"bone20","name":"bone21"}],"frameRate":30,"animation":[{"slot":[],"duration":30,"frame":[],"name":"Attack","bone":[{"frame":[{"tweenEasing":null,"transform":{},"duration":15},{"tweenEasing":null,"transform":{},"duration":15},{"tweenEasing":null,"transform":{},"duration":0}],"name":"root"},{"frame":[{"curve":[0.903,0,0.75,1],"transform":{},"duration":10},{"curve":[0.764,0.03,0.75,1],"transform":{"y":-31.22,"x":31.69},"duration":5},{"curve":[0,0,1,1],"transform":{"y":10.95,"x":-27.55},"duration":15},{"tweenEasing":null,"transform":{},"duration":0}],"name":"mid"},{"frame":[{"tweenEasing":null,"transform":{},"duration":10},{"tweenEasing":null,"transform":{},"duration":5},{"tweenEasing":null,"transform":{},"duration":15},{"tweenEasing":null,"transform":{},"duration":0}],"name":"bottom"},{"frame":[{"curve":[0.903,0,0.75,1],"transform":{},"duration":10},{"curve":[0.764,0.03,0.75,1],"transform":{"skX":-373.2,"skY":-373.2},"duration":5},{"curve":[0,0,1,1],"transform":{"skX":-362.4,"skY":-362.4},"duration":15},{"tweenEasing":null,"transform":{},"duration":0}],"name":"bone"},{"frame":[{"curve":[0.903,0,0.75,1],"transform":{},"duration":10},{"curve":[0.764,0.03,0.75,1],"transform":{"skX":-366,"skY":-366},"duration":5},{"curve":[0,0,1,1],"transform":{"skX":-360,"skY":-360},"duration":15},{"tweenEasing":null,"transform":{},"duration":0}],"name":"bone2"},{"frame":[{"curve":[0.903,0,0.75,1],"transform":{},"duration":10},{"curve":[0.764,0.03,0.75,1],"transform":{"skX":-364.8,"skY":-364.8},"duration":5},{"curve":[0,0,1,1],"transform":{"skX":-373.2,"skY":-373.2},"duration":15},{"tweenEasing":null,"transform":{},"duration":0}],"name":"bone3"},{"frame":[{"curve":[0.903,0,0.75,1],"transform":{},"duration":10},{"curve":[0.764,0.03,0.75,1],"transform":{"skX":-369.6,"skY":-369.6},"duration":5},{"curve":[0,0,1,1],"transform":{"skX":-376.8,"skY":-376.8},"duration":15},{"tweenEasing":null,"transform":{},"duration":0}],"name":"bone4"},{"frame":[{"curve":[0.903,0,0.75,1],"transform":{},"duration":10},{"curve":[0.764,0.03,0.75,1],"transform":{"skX":-369.6,"skY":-369.6},"duration":5},{"curve":[0,0,1,1],"transform":{"skX":-378,"skY":-378},"duration":15},{"tweenEasing":null,"transform":{},"duration":0}],"name":"bone5"},{"frame":[{"curve":[0.903,0,0.75,1],"transform":{},"duration":10},{"curve":[0.764,0.03,0.75,1],"transform":{"skX":-369.6,"skY":-369.6},"duration":5},{"curve":[0,0,1,1],"transform":{"skX":-378,"skY":-378},"duration":15},{"tweenEasing":null,"transform":{},"duration":0}],"name":"bone6"},{"frame":[{"curve":[0.903,0,0.75,1],"transform":{},"duration":10},{"tweenEasing":null,"transform":{"skX":2.4,"skY":2.4},"duration":5},{"curve":[0,0,1,1],"transform":{"skX":2.4,"skY":2.4},"duration":15},{"tweenEasing":null,"transform":{},"duration":0}],"name":"Top"},{"frame":[{"curve":[0.903,0,0.75,1],"transform":{},"duration":10},{"curve":[0.764,0.03,0.75,1],"transform":{"skX":6,"skY":6},"duration":5},{"curve":[0,0,1,1],"transform":{"skX":-21.6,"skY":-21.6},"duration":15},{"tweenEasing":null,"transform":{},"duration":0}],"name":"Body Top"},{"frame":[{"tweenEasing":null,"transform":{},"duration":10},{"curve":[0.764,0.03,0.75,1],"transform":{},"duration":5},{"curve":[0,0,1,1],"transform":{"skX":-380.4,"skY":-380.4},"duration":15},{"tweenEasing":null,"transform":{},"duration":0}],"name":"Right Arm"},{"frame":[{"curve":[0.903,0,0.75,1],"transform":{},"duration":10},{"curve":[0.764,0.03,0.75,1],"transform":{"y":-1.67,"skX":93.6,"skY":93.6,"x":27.92},"duration":5},{"curve":[0,0,1,1],"transform":{"skX":14.4,"skY":14.4,"x":-0.06},"duration":15},{"tweenEasing":null,"transform":{},"duration":0}],"name":"Left Arm"},{"frame":[{"curve":[0.903,0,0.75,1],"transform":{},"duration":10},{"tweenEasing":null,"transform":{"skX":-8.4,"skY":-8.4},"duration":5},{"curve":[0,0,1,1],"transform":{"skX":-8.4,"skY":-8.4},"duration":15},{"tweenEasing":null,"transform":{},"duration":0}],"name":"head"},{"frame":[{"curve":[0.903,0,0.75,1],"transform":{},"duration":10},{"curve":[0.513,0.04,0,1],"transform":{"skX":18,"skY":18},"duration":5},{"curve":[0.25,0,0.75,1],"transform":{"skX":44.4,"skY":44.4},"duration":15},{"tweenEasing":null,"transform":{},"duration":0}],"name":"Left Wing"},{"frame":[{"curve":[0.903,0,0.75,1],"transform":{},"duration":10},{"curve":[0.764,0.03,0.75,1],"transform":{"skX":-22.8,"skY":-22.8},"duration":5},{"curve":[0,0,1,1],"transform":{"skX":-3.6,"skY":-3.6},"duration":15},{"tweenEasing":null,"transform":{},"duration":0}],"name":"Right Wing"},{"frame":[{"curve":[0.498,0.01,0.801,0.43],"transform":{},"duration":10},{"curve":[0.43,0.31,0.748,0.65],"transform":{"scX":0.88},"duration":5},{"curve":[0.415,0.5,0.51,1],"transform":{"scX":1.08},"duration":15},{"tweenEasing":null,"transform":{},"duration":0}],"name":"Shadow"},{"frame":[{"tweenEasing":null,"transform":{},"duration":15},{"tweenEasing":null,"transform":{},"duration":15},{"tweenEasing":null,"transform":{},"duration":0}],"name":"Effect"},{"frame":[{"curve":[0.903,0,0.75,1],"transform":{},"duration":10},{"curve":[0.764,0.03,0.75,1],"transform":{"y":-1.87,"skX":-380.4,"skY":-380.4,"x":-7.78},"duration":5},{"curve":[0,0,1,1],"transform":{"y":-1.87,"skX":-20.4,"skY":-20.4,"x":-7.78},"duration":15},{"tweenEasing":null,"transform":{},"duration":0}],"name":"bone7"},{"frame":[{"tweenEasing":null,"transform":{},"duration":10},{"tweenEasing":null,"transform":{},"duration":5},{"tweenEasing":null,"transform":{},"duration":15},{"tweenEasing":null,"transform":{},"duration":0}],"name":"bone8"},{"frame":[{"tweenEasing":null,"transform":{},"duration":10},{"tweenEasing":null,"transform":{},"duration":5},{"tweenEasing":null,"transform":{},"duration":15},{"tweenEasing":null,"transform":{},"duration":0}],"name":"bone9"},{"frame":[{"tweenEasing":null,"transform":{},"duration":10},{"tweenEasing":null,"transform":{},"duration":5},{"tweenEasing":null,"transform":{},"duration":15},{"tweenEasing":null,"transform":{},"duration":0}],"name":"bone10"},{"frame":[{"tweenEasing":null,"transform":{},"duration":10},{"tweenEasing":null,"transform":{},"duration":5},{"tweenEasing":null,"transform":{},"duration":15},{"tweenEasing":null,"transform":{},"duration":0}],"name":"bone11"},{"frame":[{"tweenEasing":null,"transform":{},"duration":10},{"tweenEasing":null,"transform":{},"duration":5},{"tweenEasing":null,"transform":{},"duration":15},{"tweenEasing":null,"transform":{},"duration":0}],"name":"bone12"},{"frame":[{"tweenEasing":null,"transform":{},"duration":10},{"tweenEasing":null,"transform":{},"duration":5},{"tweenEasing":null,"transform":{},"duration":15},{"tweenEasing":null,"transform":{},"duration":0}],"name":"bone13"},{"frame":[{"tweenEasing":null,"transform":{},"duration":10},{"tweenEasing":null,"transform":{},"duration":5},{"tweenEasing":null,"transform":{},"duration":15},{"tweenEasing":null,"transform":{},"duration":0}],"name":"bone14"},{"frame":[{"curve":[0.903,0,0.75,1],"transform":{},"duration":10},{"curve":[0.764,0.03,0.75,1],"transform":{"skX":82.8,"skY":82.8},"duration":5},{"curve":[0,0,1,1],"transform":{"skX":-356.4,"skY":-356.4},"duration":15},{"tweenEasing":null,"transform":{},"duration":0}],"name":"bone15"},{"frame":[{"curve":[0.903,0,0.75,1],"transform":{},"duration":10},{"curve":[0.764,0.03,0.75,1],"transform":{"skX":48,"skY":48},"duration":5},{"curve":[0,0,1,1],"transform":{"skX":-343.2,"skY":-343.2},"duration":15},{"tweenEasing":null,"transform":{},"duration":0}],"name":"bone16"},{"frame":[{"tweenEasing":null,"transform":{},"duration":10},{"tweenEasing":null,"transform":{},"duration":5},{"tweenEasing":null,"transform":{},"duration":15},{"tweenEasing":null,"transform":{},"duration":0}],"name":"bone17"},{"frame":[{"tweenEasing":null,"transform":{},"duration":10},{"tweenEasing":null,"transform":{},"duration":5},{"tweenEasing":null,"transform":{},"duration":15},{"tweenEasing":null,"transform":{},"duration":0}],"name":"bone18"},{"frame":[{"tweenEasing":null,"transform":{},"duration":10},{"tweenEasing":null,"transform":{},"duration":5},{"tweenEasing":null,"transform":{},"duration":15},{"tweenEasing":null,"transform":{},"duration":0}],"name":"bone23"},{"frame":[{"tweenEasing":null,"transform":{},"duration":10},{"tweenEasing":null,"transform":{},"duration":5},{"tweenEasing":null,"transform":{},"duration":15},{"tweenEasing":null,"transform":{},"duration":0}],"name":"bone24"},{"frame":[{"tweenEasing":null,"transform":{},"duration":10},{"tweenEasing":null,"transform":{},"duration":5},{"tweenEasing":null,"transform":{},"duration":15},{"tweenEasing":null,"transform":{},"duration":0}],"name":"bone25"},{"frame":[{"tweenEasing":null,"transform":{},"duration":10},{"curve":[0.764,0.03,0.75,1],"transform":{},"duration":5},{"curve":[0,0,1,1],"transform":{"skX":4.8,"skY":4.8},"duration":15},{"tweenEasing":null,"transform":{},"duration":0}],"name":"bone19"},{"frame":[{"tweenEasing":null,"transform":{},"duration":10},{"tweenEasing":null,"transform":{},"duration":5},{"tweenEasing":null,"transform":{},"duration":15},{"tweenEasing":null,"transform":{},"duration":0}],"name":"bone20"},{"frame":[{"tweenEasing":null,"transform":{},"duration":10},{"tweenEasing":null,"transform":{},"duration":5},{"tweenEasing":null,"transform":{},"duration":15},{"tweenEasing":null,"transform":{},"duration":0}],"name":"bone21"},{"frame":[{"tweenEasing":null,"transform":{},"duration":10},{"tweenEasing":null,"transform":{},"duration":5},{"tweenEasing":null,"transform":{},"duration":15},{"tweenEasing":null,"transform":{},"duration":0}],"name":"bone22"},{"frame":[{"tweenEasing":null,"transform":{},"duration":10},{"tweenEasing":null,"transform":{},"duration":5},{"tweenEasing":null,"transform":{},"duration":15},{"tweenEasing":null,"transform":{},"duration":0}],"name":"bone26"},{"frame":[{"tweenEasing":null,"transform":{},"duration":10},{"tweenEasing":null,"transform":{},"duration":5},{"tweenEasing":null,"transform":{},"duration":15},{"tweenEasing":null,"transform":{},"duration":0}],"name":"bone27"},{"frame":[{"tweenEasing":null,"transform":{},"duration":10},{"curve":[0.764,0.03,0.75,1],"transform":{},"duration":5},{"curve":[0,0,1,1],"transform":{"skX":-15.6,"skY":-15.6},"duration":15},{"tweenEasing":null,"transform":{},"duration":0}],"name":"bone28"},{"frame":[{"tweenEasing":null,"transform":{},"duration":10},{"tweenEasing":null,"transform":{},"duration":5},{"tweenEasing":null,"transform":{},"duration":15},{"tweenEasing":null,"transform":{},"duration":0}],"name":"bone29"},{"frame":[{"tweenEasing":null,"transform":{},"duration":10},{"tweenEasing":null,"transform":{},"duration":5},{"tweenEasing":null,"transform":{},"duration":15},{"tweenEasing":null,"transform":{},"duration":0}],"name":"Body Bottom"},{"frame":[{"tweenEasing":null,"transform":{},"duration":10},{"tweenEasing":null,"transform":{},"duration":5},{"tweenEasing":null,"transform":{},"duration":15},{"tweenEasing":null,"transform":{},"duration":0}],"name":"bone30"},{"frame":[{"tweenEasing":null,"transform":{},"duration":10},{"tweenEasing":null,"transform":{},"duration":5},{"tweenEasing":null,"transform":{},"duration":15},{"tweenEasing":null,"transform":{},"duration":0}],"name":"bone31"},{"frame":[{"tweenEasing":null,"transform":{},"duration":10},{"tweenEasing":null,"transform":{},"duration":5},{"tweenEasing":null,"transform":{},"duration":15},{"tweenEasing":null,"transform":{},"duration":0}],"name":"bone32"},{"frame":[{"tweenEasing":null,"transform":{},"duration":10},{"tweenEasing":null,"transform":{},"duration":5},{"tweenEasing":null,"transform":{},"duration":15},{"tweenEasing":null,"transform":{},"duration":0}],"name":"bone33"},{"frame":[{"tweenEasing":null,"transform":{},"duration":10},{"tweenEasing":null,"transform":{},"duration":5},{"tweenEasing":null,"transform":{},"duration":15},{"tweenEasing":null,"transform":{},"duration":0}],"name":"bone34"},{"frame":[{"tweenEasing":null,"transform":{},"duration":10},{"tweenEasing":null,"transform":{},"duration":5},{"tweenEasing":null,"transform":{},"duration":15},{"tweenEasing":null,"transform":{},"duration":0}],"name":"bone35"},{"frame":[{"tweenEasing":null,"transform":{},"duration":10},{"tweenEasing":null,"transform":{},"duration":5},{"tweenEasing":null,"transform":{},"duration":15},{"tweenEasing":null,"transform":{},"duration":0}],"name":"bone36"}],"ffd":[]},{"slot":[],"duration":20,"frame":[],"name":"Damage","bone":[{"frame":[{"tweenEasing":null,"transform":{},"duration":20},{"tweenEasing":null,"transform":{},"duration":0}],"name":"root"},{"frame":[{"curve":[0.377,0.15,0.256,1],"transform":{},"duration":5},{"curve":[0.083,0.34,0.75,1],"transform":{"y":14.2,"x":15.72},"duration":15},{"tweenEasing":null,"transform":{},"duration":0}],"name":"mid"},{"frame":[{"tweenEasing":null,"transform":{},"duration":5},{"tweenEasing":null,"transform":{},"duration":15},{"tweenEasing":null,"transform":{},"duration":0}],"name":"bottom"},{"frame":[{"curve":[0.377,0.15,0.256,1],"transform":{},"duration":5},{"curve":[0.083,0.34,0.75,1],"transform":{"skX":-369.6,"skY":-369.6},"duration":15},{"tweenEasing":null,"transform":{},"duration":0}],"name":"bone"},{"frame":[{"curve":[0.377,0.15,0.256,1],"transform":{},"duration":5},{"curve":[0.083,0.34,0.75,1],"transform":{"skX":-366,"skY":-366},"duration":15},{"tweenEasing":null,"transform":{},"duration":0}],"name":"bone2"},{"frame":[{"curve":[0.377,0.15,0.256,1],"transform":{},"duration":5},{"curve":[0.083,0.34,0.75,1],"transform":{"skX":-363.6,"skY":-363.6},"duration":15},{"tweenEasing":null,"transform":{},"duration":0}],"name":"bone3"},{"frame":[{"curve":[0.377,0.15,0.256,1],"transform":{},"duration":5},{"curve":[0.083,0.34,0.75,1],"transform":{"skX":-364.8,"skY":-364.8},"duration":15},{"tweenEasing":null,"transform":{},"duration":0}],"name":"bone4"},{"frame":[{"curve":[0.377,0.15,0.256,1],"transform":{},"duration":5},{"curve":[0.083,0.34,0.75,1],"transform":{"skX":-364.8,"skY":-364.8},"duration":15},{"tweenEasing":null,"transform":{},"duration":0}],"name":"bone5"},{"frame":[{"curve":[0.377,0.15,0.256,1],"transform":{},"duration":5},{"curve":[0.083,0.34,0.75,1],"transform":{"skX":-363.6,"skY":-363.6},"duration":15},{"tweenEasing":null,"transform":{},"duration":0}],"name":"bone6"},{"frame":[{"curve":[0.377,0.15,0.256,1],"transform":{},"duration":5},{"curve":[0.083,0.34,0.75,1],"transform":{"skX":-4.8,"skY":-4.8},"duration":15},{"tweenEasing":null,"transform":{},"duration":0}],"name":"Top"},{"frame":[{"curve":[0.377,0.15,0.256,1],"transform":{},"duration":5},{"curve":[0.083,0.34,0.75,1],"transform":{"skX":-6,"skY":-6},"duration":15},{"tweenEasing":null,"transform":{},"duration":0}],"name":"Body Top"},{"frame":[{"tweenEasing":null,"transform":{},"duration":5},{"tweenEasing":null,"transform":{},"duration":15},{"tweenEasing":null,"transform":{},"duration":0}],"name":"Right Arm"},{"frame":[{"tweenEasing":null,"transform":{},"duration":5},{"tweenEasing":null,"transform":{},"duration":15},{"tweenEasing":null,"transform":{},"duration":0}],"name":"Left Arm"},{"frame":[{"tweenEasing":null,"transform":{},"duration":5},{"tweenEasing":null,"transform":{},"duration":15},{"tweenEasing":null,"transform":{},"duration":0}],"name":"head"},{"frame":[{"curve":[0.377,0.15,0.256,1],"transform":{},"duration":5},{"curve":[0.083,0.34,0.75,1],"transform":{"skX":21.6,"skY":21.6},"duration":15},{"tweenEasing":null,"transform":{},"duration":0}],"name":"Left Wing"},{"frame":[{"curve":[0.377,0.15,0.256,1],"transform":{},"duration":5},{"curve":[0.083,0.34,0.75,1],"transform":{"skX":-8.4,"skY":-8.4},"duration":15},{"tweenEasing":null,"transform":{},"duration":0}],"name":"Right Wing"},{"frame":[{"tweenEasing":null,"transform":{},"duration":5},{"tweenEasing":null,"transform":{},"duration":15},{"tweenEasing":null,"transform":{},"duration":0}],"name":"Shadow"},{"frame":[{"tweenEasing":null,"transform":{},"duration":5},{"tweenEasing":null,"transform":{},"duration":15},{"tweenEasing":null,"transform":{},"duration":0}],"name":"Effect"},{"frame":[{"curve":[0.377,0.15,0.256,1],"transform":{},"duration":5},{"curve":[0.083,0.34,0.75,1],"transform":{"y":-5.38,"skX":-390,"skY":-390,"x":-8.38},"duration":15},{"tweenEasing":null,"transform":{},"duration":0}],"name":"bone7"},{"frame":[{"curve":[0.377,0.15,0.256,1],"transform":{},"duration":5},{"curve":[0.083,0.34,0.75,1],"transform":{"skX":-342,"skY":-342},"duration":15},{"tweenEasing":null,"transform":{},"duration":0}],"name":"bone8"},{"frame":[{"tweenEasing":null,"transform":{},"duration":5},{"tweenEasing":null,"transform":{},"duration":15},{"tweenEasing":null,"transform":{},"duration":0}],"name":"bone9"},{"frame":[{"tweenEasing":null,"transform":{},"duration":5},{"tweenEasing":null,"transform":{},"duration":15},{"tweenEasing":null,"transform":{},"duration":0}],"name":"bone10"},{"frame":[{"tweenEasing":null,"transform":{},"duration":5},{"tweenEasing":null,"transform":{},"duration":15},{"tweenEasing":null,"transform":{},"duration":0}],"name":"bone11"},{"frame":[{"tweenEasing":null,"transform":{},"duration":5},{"tweenEasing":null,"transform":{},"duration":15},{"tweenEasing":null,"transform":{},"duration":0}],"name":"bone12"},{"frame":[{"curve":[0.377,0.15,0.256,1],"transform":{},"duration":5},{"curve":[0.083,0.34,0.75,1],"transform":{"skX":-337.2,"skY":-337.2},"duration":15},{"tweenEasing":null,"transform":{},"duration":0}],"name":"bone13"},{"frame":[{"tweenEasing":null,"transform":{},"duration":5},{"tweenEasing":null,"transform":{},"duration":15},{"tweenEasing":null,"transform":{},"duration":0}],"name":"bone14"},{"frame":[{"curve":[0.377,0.15,0.256,1],"transform":{},"duration":5},{"curve":[0.083,0.34,0.75,1],"transform":{"y":0.18,"skX":-326.4,"skY":-326.4,"x":4.43},"duration":15},{"tweenEasing":null,"transform":{},"duration":0}],"name":"bone15"},{"frame":[{"curve":[0.377,0.15,0.256,1],"transform":{},"duration":5},{"curve":[0.083,0.34,0.75,1],"transform":{"skX":-364.8,"skY":-364.8},"duration":15},{"tweenEasing":null,"transform":{},"duration":0}],"name":"bone16"},{"frame":[{"tweenEasing":null,"transform":{},"duration":5},{"tweenEasing":null,"transform":{},"duration":15},{"tweenEasing":null,"transform":{},"duration":0}],"name":"bone17"},{"frame":[{"tweenEasing":null,"transform":{},"duration":5},{"tweenEasing":null,"transform":{},"duration":15},{"tweenEasing":null,"transform":{},"duration":0}],"name":"bone18"},{"frame":[{"tweenEasing":null,"transform":{},"duration":5},{"tweenEasing":null,"transform":{},"duration":15},{"tweenEasing":null,"transform":{},"duration":0}],"name":"bone23"},{"frame":[{"tweenEasing":null,"transform":{},"duration":5},{"tweenEasing":null,"transform":{},"duration":15},{"tweenEasing":null,"transform":{},"duration":0}],"name":"bone24"},{"frame":[{"tweenEasing":null,"transform":{},"duration":5},{"tweenEasing":null,"transform":{},"duration":15},{"tweenEasing":null,"transform":{},"duration":0}],"name":"bone25"},{"frame":[{"tweenEasing":null,"transform":{},"duration":5},{"tweenEasing":null,"transform":{},"duration":15},{"tweenEasing":null,"transform":{},"duration":0}],"name":"bone19"},{"frame":[{"tweenEasing":null,"transform":{},"duration":5},{"tweenEasing":null,"transform":{},"duration":15},{"tweenEasing":null,"transform":{},"duration":0}],"name":"bone20"},{"frame":[{"tweenEasing":null,"transform":{},"duration":5},{"tweenEasing":null,"transform":{},"duration":15},{"tweenEasing":null,"transform":{},"duration":0}],"name":"bone21"},{"frame":[{"tweenEasing":null,"transform":{},"duration":5},{"tweenEasing":null,"transform":{},"duration":15},{"tweenEasing":null,"transform":{},"duration":0}],"name":"bone22"},{"frame":[{"tweenEasing":null,"transform":{},"duration":5},{"tweenEasing":null,"transform":{},"duration":15},{"tweenEasing":null,"transform":{},"duration":0}],"name":"bone26"},{"frame":[{"tweenEasing":null,"transform":{},"duration":5},{"tweenEasing":null,"transform":{},"duration":15},{"tweenEasing":null,"transform":{},"duration":0}],"name":"bone27"},{"frame":[{"tweenEasing":null,"transform":{},"duration":5},{"tweenEasing":null,"transform":{},"duration":15},{"tweenEasing":null,"transform":{},"duration":0}],"name":"bone28"},{"frame":[{"tweenEasing":null,"transform":{},"duration":5},{"tweenEasing":null,"transform":{},"duration":15},{"tweenEasing":null,"transform":{},"duration":0}],"name":"bone29"},{"frame":[{"curve":[0.377,0.15,0.256,1],"transform":{},"duration":5},{"curve":[0.083,0.34,0.75,1],"transform":{"skX":4.8,"skY":4.8},"duration":15},{"tweenEasing":null,"transform":{},"duration":0}],"name":"Body Bottom"},{"frame":[{"tweenEasing":null,"transform":{},"duration":5},{"tweenEasing":null,"transform":{},"duration":15},{"tweenEasing":null,"transform":{},"duration":0}],"name":"bone30"},{"frame":[{"tweenEasing":null,"transform":{},"duration":5},{"tweenEasing":null,"transform":{},"duration":15},{"tweenEasing":null,"transform":{},"duration":0}],"name":"bone31"},{"frame":[{"tweenEasing":null,"transform":{},"duration":5},{"tweenEasing":null,"transform":{},"duration":15},{"tweenEasing":null,"transform":{},"duration":0}],"name":"bone32"},{"frame":[{"tweenEasing":null,"transform":{},"duration":5},{"tweenEasing":null,"transform":{},"duration":15},{"tweenEasing":null,"transform":{},"duration":0}],"name":"bone33"},{"frame":[{"tweenEasing":null,"transform":{},"duration":5},{"tweenEasing":null,"transform":{},"duration":15},{"tweenEasing":null,"transform":{},"duration":0}],"name":"bone34"},{"frame":[{"tweenEasing":null,"transform":{},"duration":5},{"tweenEasing":null,"transform":{},"duration":15},{"tweenEasing":null,"transform":{},"duration":0}],"name":"bone35"},{"frame":[{"tweenEasing":null,"transform":{},"duration":5},{"tweenEasing":null,"transform":{},"duration":15},{"tweenEasing":null,"transform":{},"duration":0}],"name":"bone36"}],"ffd":[{"frame":[{"curve":[0.377,0.15,0.256,1],"offset":0,"vertices":[],"duration":5},{"curve":[0.083,0.34,0.75,1],"offset":158,"vertices":[0.14,-0.22,-0.56,-1.33,-0.84,-1.81,0,0,0,0,0,0,0,0,0,0,0,0,0,0,0,0,0,0,0,0,0,0,0,0,0,0,0,0,0,0,0,0,0,0,0,0,0,0,0,0,0,0,0,0,0,0,0,0,0,0,0,0,0,0,0,0,0,0,0,0,0,0,0,0,0,0,0,0,0,0,0,0,0,0,0,0,0,0,0,0,0,0,0,0,0,0,0,0,0,0,0,0,0,0,0,0,0,0,0,0,0,0,0,0,0,0,0,0,0,0,0,0,0,0,0,0,0,2.28,0.46,2.49,0,0,-0.9,1.72,0.89,1.09,0,0,0,0,0,0,0,0,0,0,0,0,0,0,0,0,0,0,0,0,0,0,0,0,0,0,0,0,0,0,0,0,0,0,0,0,0,0,0,0,0,0,0,0,0,0],"duration":15},{"tweenEasing":null,"curve":[0,0,1,1],"offset":0,"vertices":[],"duration":0}],"offset":0,"scale":1,"skin":"","name":"Head","slot":"Head"}]},{"slot":[],"duration":60,"frame":[],"name":"Idle","bone":[{"frame":[{"curve":[0.25,0,0.77,0.95],"transform":{},"duration":30},{"curve":[0.25,0,0.276,1],"transform":{"y":-24.03},"duration":30},{"tweenEasing":null,"transform":{},"duration":0}],"name":"mid"},{"frame":[{"curve":[0.25,0,0.75,1],"transform":{},"duration":30},{"curve":[0.25,0,0.276,1],"transform":{"skX":-368.4,"skY":-368.4},"duration":30},{"tweenEasing":null,"transform":{},"duration":0}],"name":"bone"},{"frame":[{"curve":[0.25,0,0.75,1],"transform":{},"duration":30},{"curve":[0.25,0,0.276,1],"transform":{"skX":-349.2,"skY":-349.2},"duration":30},{"tweenEasing":null,"transform":{},"duration":0}],"name":"bone5"},{"frame":[{"curve":[0.25,0,0.75,1],"transform":{},"duration":30},{"curve":[0.25,0,0.276,1],"transform":{"skX":-368.4,"skY":-368.4},"duration":30},{"tweenEasing":null,"transform":{},"duration":0}],"name":"bone2"},{"frame":[{"curve":[0.25,0,0.75,1],"transform":{},"duration":30},{"curve":[0.25,0,0.276,1],"transform":{"skX":-352.8,"skY":-352.8},"duration":30},{"tweenEasing":null,"transform":{},"duration":0}],"name":"bone4"},{"frame":[{"curve":[0.25,0,0.75,1],"transform":{},"duration":30},{"curve":[0.25,0,0.276,1],"transform":{"skX":9.6,"skY":9.6},"duration":30},{"tweenEasing":null,"transform":{},"duration":0}],"name":"Left Wing"},{"frame":[{"curve":[0.25,0,0.75,1],"transform":{},"duration":30},{"curve":[0.25,0,0.276,1],"transform":{"skX":13.2,"skY":13.2},"duration":30},{"tweenEasing":null,"transform":{},"duration":0}],"name":"bone19"},{"frame":[{"curve":[0.25,0,0.75,1],"transform":{},"duration":30},{"curve":[0.25,0,0.276,1],"transform":{"skX":-373.2,"skY":-373.2},"duration":30},{"tweenEasing":null,"transform":{},"duration":0}],"name":"bone28"},{"frame":[{"tweenEasing":null,"transform":{},"duration":60}],"name":"bone11"},{"frame":[{"curve":[0.25,0,0.75,1],"transform":{},"duration":30},{"curve":[0.25,0,0.276,1],"transform":{"skX":-370.8,"skY":-370.8},"duration":30},{"tweenEasing":null,"transform":{},"duration":0}],"name":"bone10"},{"frame":[{"curve":[0.25,0,0.75,1],"transform":{},"duration":30},{"curve":[0.25,0,0.276,1],"transform":{"skX":-350.4,"skY":-350.4},"duration":30},{"tweenEasing":null,"transform":{},"duration":0}],"name":"bone16"},{"frame":[{"curve":[0,0,1,1],"transform":{},"duration":30},{"curve":[0,0,1,1],"transform":{"scY":1.16,"scX":0.92},"duration":30},{"tweenEasing":null,"transform":{},"duration":0}],"name":"Shadow"},{"frame":[{"curve":[0,0,1,1],"transform":{},"duration":30},{"curve":[0,0,1,1],"transform":{"skX":-15.6,"skY":-15.6},"duration":30},{"tweenEasing":null,"transform":{},"duration":0}],"name":"bone30"},{"frame":[{"curve":[0,0,1,1],"transform":{},"duration":30},{"curve":[0,0,1,1],"transform":{"skX":6,"skY":6},"duration":30},{"tweenEasing":null,"transform":{},"duration":0}],"name":"bone32"},{"frame":[{"curve":[0,0,1,1],"transform":{},"duration":30},{"curve":[0,0,1,1],"transform":{"skX":13.2,"skY":13.2},"duration":30},{"tweenEasing":null,"transform":{},"duration":0}],"name":"bone33"},{"frame":[{"curve":[0,0,1,1],"transform":{},"duration":30},{"curve":[0,0,1,1],"transform":{"skX":19.2,"skY":19.2},"duration":30},{"tweenEasing":null,"transform":{},"duration":0}],"name":"bone31"},{"frame":[{"curve":[0,0,1,1],"transform":{},"duration":30},{"curve":[0,0,1,1],"transform":{"skX":19.2,"skY":19.2},"duration":30},{"tweenEasing":null,"transform":{},"duration":0}],"name":"bone34"},{"frame":[{"curve":[0,0,1,1],"transform":{},"duration":30},{"curve":[0,0,1,1],"transform":{"skX":-6,"skY":-6},"duration":30},{"tweenEasing":null,"transform":{},"duration":0}],"name":"Right Wing"},{"frame":[{"curve":[0,0,1,1],"transform":{},"duration":30},{"curve":[0,0,1,1],"transform":{"skX":-348,"skY":-348},"duration":30},{"tweenEasing":null,"transform":{},"duration":0}],"name":"bone13"},{"frame":[{"tweenEasing":null,"transform":{},"duration":60}],"name":"root"},{"frame":[{"tweenEasing":null,"transform":{},"duration":60}],"name":"Effect"},{"frame":[{"tweenEasing":null,"transform":{},"duration":60}],"name":"bottom"},{"frame":[{"tweenEasing":null,"transform":{},"duration":60}],"name":"Top"},{"frame":[{"tweenEasing":null,"transform":{},"duration":60}],"name":"bone3"},{"frame":[{"tweenEasing":null,"transform":{},"duration":60}],"name":"Body Top"},{"frame":[{"tweenEasing":null,"transform":{},"duration":60}],"name":"bone6"},{"frame":[{"tweenEasing":null,"transform":{},"duration":60}],"name":"Body Bottom"},{"frame":[{"tweenEasing":null,"transform":{},"duration":60}],"name":"Left Arm"},{"frame":[{"tweenEasing":null,"transform":{},"duration":60}],"name":"Right Arm"},{"frame":[{"tweenEasing":null,"transform":{},"duration":60}],"name":"head"},{"frame":[{"tweenEasing":null,"transform":{},"duration":60}],"name":"bone7"},{"frame":[{"tweenEasing":null,"transform":{},"duration":60}],"name":"bone35"},{"frame":[{"tweenEasing":null,"transform":{},"duration":60}],"name":"bone23"},{"frame":[{"tweenEasing":null,"transform":{},"duration":60}],"name":"bone14"},{"frame":[{"tweenEasing":null,"transform":{},"duration":60}],"name":"bone36"},{"frame":[{"tweenEasing":null,"transform":{},"duration":60}],"name":"bone22"},{"frame":[{"tweenEasing":null,"transform":{},"duration":60}],"name":"bone26"},{"frame":[{"tweenEasing":null,"transform":{},"duration":60}],"name":"bone15"},{"frame":[{"tweenEasing":null,"transform":{},"duration":60}],"name":"bone8"},{"frame":[{"tweenEasing":null,"transform":{},"duration":60}],"name":"bone24"},{"frame":[{"tweenEasing":null,"transform":{},"duration":60}],"name":"bone9"},{"frame":[{"tweenEasing":null,"transform":{},"duration":60}],"name":"bone25"},{"frame":[{"tweenEasing":null,"transform":{},"duration":60}],"name":"bone27"},{"frame":[{"tweenEasing":null,"transform":{},"duration":60}],"name":"bone18"},{"frame":[{"tweenEasing":null,"transform":{},"duration":60}],"name":"bone17"},{"frame":[{"tweenEasing":null,"transform":{},"duration":60}],"name":"bone12"},{"frame":[{"tweenEasing":null,"transform":{},"duration":60}],"name":"bone29"},{"frame":[{"tweenEasing":null,"transform":{},"duration":60}],"name":"bone20"},{"frame":[{"tweenEasing":null,"transform":{},"duration":60}],"name":"bone21"}],"ffd":[{"frame":[{"curve":[0.25,0,0.625,0.5],"offset":0,"vertices":[],"duration":30},{"curve":[0.375,0.5,0.75,1],"offset":5,"vertices":[1.25,0.29,1.15,0.67,-1.25,0.38,-1.15,-0.58,0.1,-0.58,0.1,-0.86,1.25,-2.02,2.11,-1.15,0.86,0,0,0,0,0,0,0,0,0,0,0,0,0,0,0,0,0,0,0,0,0,0,0,0,0,0,0,0,0,0,0,0,0,0,0,0,0,0,0,0,0,0,0,0,0,0,0,0,0,0,0,0,0,0,0,0,0,0,0,0,0,0,0,0,0,0,0,0,0,0,0,0,0,0,0,0,0,0,0,0,0,0,0,0,0,0,0,0,0,0,0,0,0,0,0,0,0,0,0,0,0,0,0,0,0,0,0,0,0,0,0,0,0,0,0,0,0,0,0,0,0,0,0,0,0,0,0,0,0,0,0,0,0,0,0,0,0,0,0,0],"duration":30},{"tweenEasing":null,"curve":[0,0,1,1],"offset":0,"vertices":[],"duration":0}],"offset":0,"scale":1,"skin":"","name":"body","slot":"body"}]},{"slot":[],"duration":120,"frame":[],"name":"Idle Weak","bone":[{"frame":[{"curve":[0.25,0,0.77,0.95],"transform":{},"duration":60},{"curve":[0.25,0,0.276,1],"transform":{"y":-24.03},"duration":60},{"tweenEasing":null,"transform":{},"duration":0}],"name":"mid"},{"frame":[{"curve":[0.25,0,0.75,1],"transform":{},"duration":60},{"curve":[0.25,0,0.276,1],"transform":{"skX":-368.4,"skY":-368.4},"duration":60},{"tweenEasing":null,